<?xml version="1.0"?>
<opencv_storage>
<cascade>
  <stageType>BOOST</stageType>
  <featureType>HAAR</featureType>
  <height>24</height>
  <width>24</width>
  <stageParams>
    <boostType>GAB</boostType>
    <minHitRate>9.9500000476837158e-01</minHitRate>
    <maxFalseAlarm>5.0000000000000000e-01</maxFalseAlarm>
    <weightTrimRate>9.4999998807907104e-01</weightTrimRate>
    <maxDepth>1</maxDepth>
    <maxWeakCount>100</maxWeakCount></stageParams>
  <featureParams>
    <maxCatCount>0</maxCatCount>
    <featSize>1</featSize>
    <mode>BASIC</mode></featureParams>
  <stageNum>30</stageNum>
  <stages>
    <!-- stage 0 -->
    <_>
      <maxWeakCount>3</maxWeakCount>
      <stageThreshold>9.2452007532119751e-01</stageThreshold>
      <weakClassifiers>
        <_>
          <internalNodes>
            0 -1 35 -7.8047938644886017e-02</internalNodes>
          <leafValues>
            8.6004513502120972e-01 -7.9220777750015259e-01</leafValues></_>
        <_>
          <internalNodes>
            0 -1 80 -2.5122858583927155e-02</internalNodes>
          <leafValues>
            8.5384654998779297e-01 -7.7531373500823975e-01</leafValues></_>
        <_>
          <internalNodes>
            0 -1 28 5.7038672268390656e-02</internalNodes>
          <leafValues>
            -7.1354472637176514e-01 8.6288136243820190e-01</leafValues></_></weakClassifiers></_>
    <!-- stage 1 -->
    <_>
      <maxWeakCount>4</maxWeakCount>
      <stageThreshold>-2.4505369365215302e-02</stageThreshold>
      <weakClassifiers>
        <_>
          <internalNodes>
            0 -1 54 3.1425729393959045e-03</internalNodes>
          <leafValues>
            -5.5813956260681152e-01 8.4792625904083252e-01</leafValues></_>
        <_>
          <internalNodes>
            0 -1 62 3.0917599797248840e-02</internalNodes>
          <leafValues>
            5.9578168392181396e-01 -9.4778639078140259e-01</leafValues></_>
        <_>
          <internalNodes>
            0 -1 86 3.6830920726060867e-03</internalNodes>
          <leafValues>
            -7.9566341638565063e-01 5.9767961502075195e-01</leafValues></_>
        <_>
          <internalNodes>
            0 -1 161 -1.1806330643594265e-02</internalNodes>
          <leafValues>
            7.3351591825485229e-01 -6.5758740901947021e-01</leafValues></_></weakClassifiers></_>
    <!-- stage 2 -->
    <_>
      <maxWeakCount>4</maxWeakCount>
      <stageThreshold>3.1312141567468643e-02</stageThreshold>
      <weakClassifiers>
        <_>
          <internalNodes>
            0 -1 90 3.7203125655651093e-02</internalNodes>
          <leafValues>
            7.7070063352584839e-01 -8.7755101919174194e-01</leafValues></_>
        <_>
          <internalNodes>
            0 -1 12 2.2472340613603592e-02</internalNodes>
          <leafValues>
            -5.0728875398635864e-01 6.9582086801528931e-01</leafValues></_>
        <_>
          <internalNodes>
            0 -1 142 5.3661167621612549e-03</internalNodes>
          <leafValues>
            -5.1439779996871948e-01 6.7956757545471191e-01</leafValues></_>
        <_>
          <internalNodes>
            0 -1 47 -5.8337271213531494e-02</internalNodes>
          <leafValues>
            -9.1166734695434570e-01 3.8001763820648193e-01</leafValues></_></weakClassifiers></_>
    <!-- stage 3 -->
    <_>
      <maxWeakCount>5</maxWeakCount>
      <stageThreshold>-5.4159158468246460e-01</stageThreshold>
      <weakClassifiers>
        <_>
          <internalNodes>
            0 -1 5 1.6115756705403328e-02</internalNodes>
          <leafValues>
            -3.9393940567970276e-01 8.5273158550262451e-01</leafValues></_>
        <_>
          <internalNodes>
            0 -1 130 2.2246520966291428e-03</internalNodes>
          <leafValues>
            -8.2113957405090332e-01 5.5556029081344604e-01</leafValues></_>
        <_>
          <internalNodes>
            0 -1 46 1.6266943886876106e-02</internalNodes>
          <leafValues>
            -4.5349371433258057e-01 7.1203547716140747e-01</leafValues></_>
        <_>
          <internalNodes>
            0 -1 172 -1.6941754147410393e-03</internalNodes>
          <leafValues>
            5.0367003679275513e-01 -5.6058418750762939e-01</leafValues></_>
        <_>
          <internalNodes>
            0 -1 99 2.1362686529755592e-03</internalNodes>
          <leafValues>
            3.1086543202400208e-01 -9.5981162786483765e-01</leafValues></_></weakClassifiers></_>
    <!-- stage 4 -->
    <_>
      <maxWeakCount>2</maxWeakCount>
      <stageThreshold>-2.0175894722342491e-02</stageThreshold>
      <weakClassifiers>
        <_>
          <internalNodes>
            0 -1 4 5.6548218708485365e-04</internalNodes>
          <leafValues>
            -8.2857143878936768e-01 8.3999997377395630e-01</leafValues></_>
        <_>
          <internalNodes>
            0 -1 63 -7.2255049599334598e-04</internalNodes>
          <leafValues>
            8.0839550495147705e-01 -4.3027800321578979e-01</leafValues></_></weakClassifiers></_>
    <!-- stage 5 -->
    <_>
      <maxWeakCount>5</maxWeakCount>
      <stageThreshold>-2.5054123997688293e-01</stageThreshold>
      <weakClassifiers>
        <_>
          <internalNodes>
            0 -1 58 1.5097956638783216e-03</internalNodes>
          <leafValues>
            7.7634406089782715e-01 -7.4545454978942871e-01</leafValues></_>
        <_>
          <internalNodes>
            0 -1 150 1.0393202304840088e-02</internalNodes>
          <leafValues>
            -3.1980746984481812e-01 8.0803620815277100e-01</leafValues></_>
        <_>
          <internalNodes>
            0 -1 10 2.4616755545139313e-02</internalNodes>
          <leafValues>
            -5.9350001811981201e-01 4.9985337257385254e-01</leafValues></_>
        <_>
          <internalNodes>
            0 -1 120 -1.0776256676763296e-03</internalNodes>
          <leafValues>
            8.3749920129776001e-01 -3.3176219463348389e-01</leafValues></_>
        <_>
          <internalNodes>
            0 -1 45 5.2719301311299205e-04</internalNodes>
          <leafValues>
            3.3856365084648132e-01 -8.7516903877258301e-01</leafValues></_></weakClassifiers></_>
    <!-- stage 6 -->
    <_>
      <maxWeakCount>4</maxWeakCount>
      <stageThreshold>-9.7751587629318237e-01</stageThreshold>
      <weakClassifiers>
        <_>
          <internalNodes>
            0 -1 129 -2.6334303617477417e-01</internalNodes>
          <leafValues>
            -8.7096774578094482e-01 8.1659388542175293e-01</leafValues></_>
        <_>
          <internalNodes>
            0 -1 160 -7.5361868366599083e-03</internalNodes>
          <leafValues>
            6.1377173662185669e-01 -7.0031738281250000e-01</leafValues></_>
        <_>
          <internalNodes>
            0 -1 64 -7.0815477520227432e-03</internalNodes>
          <leafValues>
            7.4792730808258057e-01 -4.5401296019554138e-01</leafValues></_>
        <_>
          <internalNodes>
            0 -1 16 1.4766789972782135e-02</internalNodes>
          <leafValues>
            -6.3977944850921631e-01 5.2138715982437134e-01</leafValues></_></weakClassifiers></_>
    <!-- stage 7 -->
    <_>
      <maxWeakCount>6</maxWeakCount>
      <stageThreshold>-6.7593115568161011e-01</stageThreshold>
      <weakClassifiers>
        <_>
          <internalNodes>
            0 -1 149 5.2455663681030273e-03</internalNodes>
          <leafValues>
            -2.2522522509098053e-01 8.4352076053619385e-01</leafValues></_>
        <_>
          <internalNodes>
            0 -1 61 5.3254500031471252e-02</internalNodes>
          <leafValues>
            -1.6263377666473389e-01 9.8720043897628784e-01</leafValues></_>
        <_>
          <internalNodes>
            0 -1 27 2.4727117270231247e-02</internalNodes>
          <leafValues>
            -2.8682243824005127e-01 7.0901668071746826e-01</leafValues></_>
        <_>
          <internalNodes>
            0 -1 102 -1.6488996334373951e-04</internalNodes>
          <leafValues>
            7.5645071268081665e-01 -3.2843557000160217e-01</leafValues></_>
        <_>
          <internalNodes>
            0 -1 133 5.7263107009930536e-05</internalNodes>
          <leafValues>
            -3.8188442587852478e-01 7.3736447095870972e-01</leafValues></_>
        <_>
          <internalNodes>
            0 -1 163 3.3165892818942666e-04</internalNodes>
          <leafValues>
            -3.5967576503753662e-01 7.8493684530258179e-01</leafValues></_></weakClassifiers></_>
    <!-- stage 8 -->
    <_>
      <maxWeakCount>5</maxWeakCount>
      <stageThreshold>-3.9356648921966553e-01</stageThreshold>
      <weakClassifiers>
        <_>
          <internalNodes>
            0 -1 68 -3.2360390760004520e-03</internalNodes>
          <leafValues>
            -7.9166668653488159e-01 7.5847458839416504e-01</leafValues></_>
        <_>
          <internalNodes>
            0 -1 134 5.9041921049356461e-03</internalNodes>
          <leafValues>
            -5.3238874673843384e-01 6.1724704504013062e-01</leafValues></_>
        <_>
          <internalNodes>
            0 -1 79 1.0125487111508846e-02</internalNodes>
          <leafValues>
            -3.7378808856010437e-01 8.4376305341720581e-01</leafValues></_>
        <_>
          <internalNodes>
            0 -1 173 2.2143154637888074e-05</internalNodes>
          <leafValues>
            -5.0271224975585938e-01 6.8098151683807373e-01</leafValues></_>
        <_>
          <internalNodes>
            0 -1 22 -1.6913474610191770e-05</internalNodes>
          <leafValues>
            6.1511915922164917e-01 -5.2634030580520630e-01</leafValues></_></weakClassifiers></_>
    <!-- stage 9 -->
    <_>
      <maxWeakCount>6</maxWeakCount>
      <stageThreshold>-2.5922271609306335e-01</stageThreshold>
      <weakClassifiers>
        <_>
          <internalNodes>
            0 -1 8 6.0247825458645821e-03</internalNodes>
          <leafValues>
            -2.7906978130340576e-01 7.9262673854827881e-01</leafValues></_>
        <_>
          <internalNodes>
            0 -1 117 2.7733771130442619e-03</internalNodes>
          <leafValues>
            -2.9342925548553467e-01 9.1030001640319824e-01</leafValues></_>
        <_>
          <internalNodes>
            0 -1 131 -9.2885103076696396e-03</internalNodes>
          <leafValues>
            -6.7382603883743286e-01 4.7887191176414490e-01</leafValues></_>
        <_>
          <internalNodes>
            0 -1 177 3.2190204365178943e-05</internalNodes>
          <leafValues>
            -3.8374489545822144e-01 6.8266886472702026e-01</leafValues></_>
        <_>
          <internalNodes>
            0 -1 128 3.9466070011258125e-03</internalNodes>
          <leafValues>
            -3.6841744184494019e-01 9.0013730525970459e-01</leafValues></_>
        <_>
          <internalNodes>
            0 -1 17 2.2130640223622322e-02</internalNodes>
          <leafValues>
            -4.7634166479110718e-01 5.8656674623489380e-01</leafValues></_></weakClassifiers></_>
    <!-- stage 10 -->
    <_>
      <maxWeakCount>4</maxWeakCount>
      <stageThreshold>2.1442739665508270e-01</stageThreshold>
      <weakClassifiers>
        <_>
          <internalNodes>
            0 -1 75 3.6653890274465084e-03</internalNodes>
          <leafValues>
            7.2484600543975830e-01 -1.</leafValues></_>
        <_>
          <internalNodes>
            0 -1 159 -3.6039808765053749e-03</internalNodes>
          <leafValues>
            4.6166366338729858e-01 -8.0182015895843506e-01</leafValues></_>
        <_>
          <internalNodes>
            0 -1 0 1.0981403291225433e-02</internalNodes>
          <leafValues>
            -4.4955033063888550e-01 7.8180629014968872e-01</leafValues></_>
        <_>
          <internalNodes>
            0 -1 144 -6.5516936592757702e-03</internalNodes>
          <leafValues>
            7.4095189571380615e-01 -3.4790328145027161e-01</leafValues></_></weakClassifiers></_>
    <!-- stage 11 -->
    <_>
      <maxWeakCount>4</maxWeakCount>
      <stageThreshold>2.3242628574371338e-01</stageThreshold>
      <weakClassifiers>
        <_>
          <internalNodes>
            0 -1 21 2.9767090454697609e-03</internalNodes>
          <leafValues>
            -5.0000000000000000e-01 7.6086956262588501e-01</leafValues></_>
        <_>
          <internalNodes>
            0 -1 101 5.0175245851278305e-03</internalNodes>
          <leafValues>
            6.9558632373809814e-01 -4.1450315713882446e-01</leafValues></_>
        <_>
          <internalNodes>
            0 -1 88 -1.7758097499608994e-02</internalNodes>
          <leafValues>
            4.2418792843818665e-01 -7.6299536228179932e-01</leafValues></_>
        <_>
          <internalNodes>
            0 -1 40 1.9111625151708722e-03</internalNodes>
          <leafValues>
            -3.8734799623489380e-01 7.5554788112640381e-01</leafValues></_></weakClassifiers></_>
    <!-- stage 12 -->
    <_>
      <maxWeakCount>7</maxWeakCount>
      <stageThreshold>4.7543067485094070e-02</stageThreshold>
      <weakClassifiers>
        <_>
          <internalNodes>
            0 -1 9 1.6733920574188232e-01</internalNodes>
          <leafValues>
            7.0731705427169800e-01 -1.</leafValues></_>
        <_>
          <internalNodes>
            0 -1 50 8.6665228009223938e-03</internalNodes>
          <leafValues>
            6.7230868339538574e-01 -5.6450200080871582e-01</leafValues></_>
        <_>
          <internalNodes>
            0 -1 158 -1.7139147530542687e-05</internalNodes>
          <leafValues>
            3.6297205090522766e-01 -7.4633228778839111e-01</leafValues></_>
        <_>
          <internalNodes>
            0 -1 7 9.5405373722314835e-03</internalNodes>
          <leafValues>
            -3.3990138769149780e-01 8.7690043449401855e-01</leafValues></_>
        <_>
          <internalNodes>
            0 -1 135 4.7393225133419037e-02</internalNodes>
          <leafValues>
            -3.5224881768226624e-01 8.8876068592071533e-01</leafValues></_>
        <_>
          <internalNodes>
            0 -1 41 2.1439675241708755e-02</internalNodes>
          <leafValues>
            -2.3356486856937408e-01 8.7446993589401245e-01</leafValues></_>
        <_>
          <internalNodes>
            0 -1 30 -3.0599616467952728e-02</internalNodes>
          <leafValues>
            4.6747100353240967e-01 -5.5872488021850586e-01</leafValues></_></weakClassifiers></_>
    <!-- stage 13 -->
    <_>
      <maxWeakCount>7</maxWeakCount>
      <stageThreshold>-9.2102795839309692e-01</stageThreshold>
      <weakClassifiers>
        <_>
          <internalNodes>
            0 -1 53 8.3639863878488541e-03</internalNodes>
          <leafValues>
            7.6521736383438110e-01 -5.3333336114883423e-01</leafValues></_>
        <_>
          <internalNodes>
            0 -1 25 -5.5748209357261658e-02</internalNodes>
          <leafValues>
            -8.4126168489456177e-01 4.7852420806884766e-01</leafValues></_>
        <_>
          <internalNodes>
            0 -1 42 1.2810517102479935e-02</internalNodes>
          <leafValues>
            -4.2999666929244995e-01 5.7122337818145752e-01</leafValues></_>
        <_>
          <internalNodes>
            0 -1 74 1.4926884614396840e-04</internalNodes>
          <leafValues>
            -2.6354387402534485e-01 8.1182634830474854e-01</leafValues></_>
        <_>
          <internalNodes>
            0 -1 105 1.5126435318961740e-03</internalNodes>
          <leafValues>
            3.4038212895393372e-01 -6.7972248792648315e-01</leafValues></_>
        <_>
          <internalNodes>
            0 -1 89 -3.4119121264666319e-03</internalNodes>
          <leafValues>
            8.1308072805404663e-01 -3.0200487375259399e-01</leafValues></_>
        <_>
          <internalNodes>
            0 -1 71 2.4376632645726204e-03</internalNodes>
          <leafValues>
            -3.2326921820640564e-01 8.0904906988143921e-01</leafValues></_></weakClassifiers></_>
    <!-- stage 14 -->
    <_>
      <maxWeakCount>7</maxWeakCount>
      <stageThreshold>-1.1705778539180756e-01</stageThreshold>
      <weakClassifiers>
        <_>
          <internalNodes>
            0 -1 59 -4.3078800663352013e-03</internalNodes>
          <leafValues>
            -7.5757575035095215e-01 7.0841890573501587e-01</leafValues></_>
        <_>
          <internalNodes>
            0 -1 104 -8.5468243923969567e-05</internalNodes>
          <leafValues>
            6.5897536277770996e-01 -3.3757823705673218e-01</leafValues></_>
        <_>
          <internalNodes>
            0 -1 82 -4.0315682999789715e-03</internalNodes>
          <leafValues>
            7.3849105834960938e-01 -3.2550990581512451e-01</leafValues></_>
        <_>
          <internalNodes>
            0 -1 29 1.0563381947577000e-03</internalNodes>
          <leafValues>
            -2.5605261325836182e-01 7.7740085124969482e-01</leafValues></_>
        <_>
          <internalNodes>
            0 -1 84 2.5524418801069260e-02</internalNodes>
          <leafValues>
            -6.4152640104293823e-01 3.6317309737205505e-01</leafValues></_>
        <_>
          <internalNodes>
            0 -1 14 2.1026890724897385e-02</internalNodes>
          <leafValues>
            -3.5831829905509949e-01 6.5964448451995850e-01</leafValues></_>
        <_>
          <internalNodes>
            0 -1 3 9.4609931111335754e-02</internalNodes>
          <leafValues>
            -4.2661780118942261e-01 5.2135050296783447e-01</leafValues></_></weakClassifiers></_>
    <!-- stage 15 -->
    <_>
      <maxWeakCount>5</maxWeakCount>
      <stageThreshold>1.1638619005680084e-01</stageThreshold>
      <weakClassifiers>
        <_>
          <internalNodes>
            0 -1 19 -1.4540035277605057e-02</internalNodes>
          <leafValues>
            -8.2352942228317261e-01 7.1604937314987183e-01</leafValues></_>
        <_>
          <internalNodes>
            0 -1 110 -9.7416806966066360e-03</internalNodes>
          <leafValues>
            6.7157971858978271e-01 -5.2053165435791016e-01</leafValues></_>
        <_>
          <internalNodes>
            0 -1 76 9.4245850050356239e-05</internalNodes>
          <leafValues>
            -3.2226204872131348e-01 7.4427157640457153e-01</leafValues></_>
        <_>
          <internalNodes>
            0 -1 123 -3.7906146608293056e-03</internalNodes>
          <leafValues>
            9.6762359142303467e-01 -2.0729631185531616e-01</leafValues></_>
        <_>
          <internalNodes>
            0 -1 141 -1.4546026068273932e-04</internalNodes>
          <leafValues>
            4.5042681694030762e-01 -5.2996581792831421e-01</leafValues></_></weakClassifiers></_>
    <!-- stage 16 -->
    <_>
      <maxWeakCount>7</maxWeakCount>
      <stageThreshold>-5.6146746873855591e-01</stageThreshold>
      <weakClassifiers>
        <_>
          <internalNodes>
            0 -1 51 3.8957414217293262e-03</internalNodes>
          <leafValues>
            7.9069769382476807e-01 -2.2222222387790680e-01</leafValues></_>
        <_>
          <internalNodes>
            0 -1 100 -6.2868586974218488e-04</internalNodes>
          <leafValues>
            4.6847471594810486e-01 -6.5233224630355835e-01</leafValues></_>
        <_>
          <internalNodes>
            0 -1 164 1.0589111596345901e-02</internalNodes>
          <leafValues>
            -3.0007445812225342e-01 8.7948489189147949e-01</leafValues></_>
        <_>
          <internalNodes>
            0 -1 140 -1.9218917004764080e-03</internalNodes>
          <leafValues>
            -7.7816224098205566e-01 3.2583531737327576e-01</leafValues></_>
        <_>
          <internalNodes>
            0 -1 20 -2.7318275533616543e-03</internalNodes>
          <leafValues>
            9.3529170751571655e-01 -2.4009026587009430e-01</leafValues></_>
        <_>
          <internalNodes>
            0 -1 168 3.6623416235670447e-05</internalNodes>
          <leafValues>
            -2.8941103816032410e-01 7.1211433410644531e-01</leafValues></_>
        <_>
          <internalNodes>
            0 -1 65 1.4497265219688416e-03</internalNodes>
          <leafValues>
            -3.0397951602935791e-01 7.2077542543411255e-01</leafValues></_></weakClassifiers></_>
    <!-- stage 17 -->
    <_>
      <maxWeakCount>7</maxWeakCount>
      <stageThreshold>1.3724671304225922e-01</stageThreshold>
      <weakClassifiers>
        <_>
          <internalNodes>
            0 -1 96 1.7152346670627594e-02</internalNodes>
          <leafValues>
            7.0672094821929932e-01 -9.3103450536727905e-01</leafValues></_>
        <_>
          <internalNodes>
            0 -1 73 -9.4982067821547389e-04</internalNodes>
          <leafValues>
            5.5700397491455078e-01 -5.0814616680145264e-01</leafValues></_>
        <_>
          <internalNodes>
            0 -1 15 1.6613481566309929e-02</internalNodes>
          <leafValues>
            -5.9124702215194702e-01 3.8124629855155945e-01</leafValues></_>
        <_>
          <internalNodes>
            0 -1 70 -1.2730377493426204e-03</internalNodes>
          <leafValues>
            8.4032881259918213e-01 -2.8037470579147339e-01</leafValues></_>
        <_>
          <internalNodes>
            0 -1 94 -4.6405717730522156e-03</internalNodes>
          <leafValues>
            7.6748996973037720e-01 -3.3462706208229065e-01</leafValues></_>
        <_>
          <internalNodes>
            0 -1 132 2.3205096367746592e-03</internalNodes>
          <leafValues>
            4.7112300992012024e-01 -5.2707195281982422e-01</leafValues></_>
        <_>
          <internalNodes>
            0 -1 116 3.7505421787500381e-03</internalNodes>
          <leafValues>
            -2.9869562387466431e-01 7.6069867610931396e-01</leafValues></_></weakClassifiers></_>
    <!-- stage 18 -->
    <_>
      <maxWeakCount>8</maxWeakCount>
      <stageThreshold>-2.1842913329601288e-01</stageThreshold>
      <weakClassifiers>
        <_>
          <internalNodes>
            0 -1 97 -8.9041758328676224e-03</internalNodes>
          <leafValues>
            -8.0645161867141724e-01 7.0552146434783936e-01</leafValues></_>
        <_>
          <internalNodes>
            0 -1 98 8.7813176214694977e-03</internalNodes>
          <leafValues>
            4.6345269680023193e-01 -6.8110841512680054e-01</leafValues></_>
        <_>
          <internalNodes>
            0 -1 157 -8.7608559988439083e-04</internalNodes>
          <leafValues>
            3.9912104606628418e-01 -6.3496536016464233e-01</leafValues></_>
        <_>
          <internalNodes>
            0 -1 165 1.4888873323798180e-02</internalNodes>
          <leafValues>
            -3.1911477446556091e-01 6.8351060152053833e-01</leafValues></_>
        <_>
          <internalNodes>
            0 -1 112 7.0015774108469486e-03</internalNodes>
          <leafValues>
            3.1661820411682129e-01 -6.6667497158050537e-01</leafValues></_>
        <_>
          <internalNodes>
            0 -1 33 3.4628377761691809e-03</internalNodes>
          <leafValues>
            -5.3294116258621216e-01 4.0140250325202942e-01</leafValues></_>
        <_>
          <internalNodes>
            0 -1 176 1.6255182345048524e-05</internalNodes>
          <leafValues>
            -3.4047856926918030e-01 7.6325136423110962e-01</leafValues></_>
        <_>
          <internalNodes>
            0 -1 174 1.6426556612714194e-05</internalNodes>
          <leafValues>
            -3.3297863602638245e-01 6.3835960626602173e-01</leafValues></_></weakClassifiers></_>
    <!-- stage 19 -->
    <_>
      <maxWeakCount>8</maxWeakCount>
      <stageThreshold>-4.6329411864280701e-01</stageThreshold>
      <weakClassifiers>
        <_>
          <internalNodes>
            0 -1 108 -4.9123313277959824e-02</internalNodes>
          <leafValues>
            -7.9310345649719238e-01 6.9857436418533325e-01</leafValues></_>
        <_>
          <internalNodes>
            0 -1 166 1.3831956312060356e-02</internalNodes>
          <leafValues>
            -3.6471453309059143e-01 5.6472814083099365e-01</leafValues></_>
        <_>
          <internalNodes>
            0 -1 137 -3.7890314124524593e-03</internalNodes>
          <leafValues>
            9.0157806873321533e-01 -2.7129918336868286e-01</leafValues></_>
        <_>
          <internalNodes>
            0 -1 32 1.4463524334132671e-02</internalNodes>
          <leafValues>
            -2.6762682199478149e-01 6.6857862472534180e-01</leafValues></_>
        <_>
          <internalNodes>
            0 -1 136 -9.4803213141858578e-04</internalNodes>
          <leafValues>
            7.0268845558166504e-01 -3.5656842589378357e-01</leafValues></_>
        <_>
          <internalNodes>
            0 -1 107 -1.4047086006030440e-04</internalNodes>
          <leafValues>
            -4.5486652851104736e-01 5.0163060426712036e-01</leafValues></_>
        <_>
          <internalNodes>
            0 -1 114 -8.6825406469870359e-05</internalNodes>
          <leafValues>
            7.7431148290634155e-01 -2.6094174385070801e-01</leafValues></_>
        <_>
          <internalNodes>
            0 -1 143 -4.0351366624236107e-04</internalNodes>
          <leafValues>
            7.3618990182876587e-01 -2.4510806798934937e-01</leafValues></_></weakClassifiers></_>
    <!-- stage 20 -->
    <_>
      <maxWeakCount>10</maxWeakCount>
      <stageThreshold>-2.5090348720550537e-01</stageThreshold>
      <weakClassifiers>
        <_>
          <internalNodes>
            0 -1 78 1.5392357017844915e-03</internalNodes>
          <leafValues>
            6.9014084339141846e-01 -1.</leafValues></_>
        <_>
          <internalNodes>
            0 -1 69 -6.6181449219584465e-03</internalNodes>
          <leafValues>
            6.4619880914688110e-01 -3.2339766621589661e-01</leafValues></_>
        <_>
          <internalNodes>
            0 -1 175 -1.6880851471796632e-03</internalNodes>
          <leafValues>
            9.3393582105636597e-01 -2.1548008918762207e-01</leafValues></_>
        <_>
          <internalNodes>
            0 -1 48 -6.3866988057270646e-04</internalNodes>
          <leafValues>
            5.8591908216476440e-01 -2.8301504254341125e-01</leafValues></_>
        <_>
          <internalNodes>
            0 -1 126 1.6077468899311498e-05</internalNodes>
          <leafValues>
            -2.5521031022071838e-01 6.2829077243804932e-01</leafValues></_>
        <_>
          <internalNodes>
            0 -1 43 -8.7397557217627764e-04</internalNodes>
          <leafValues>
            7.1843558549880981e-01 -2.3350910842418671e-01</leafValues></_>
        <_>
          <internalNodes>
            0 -1 23 -3.9781164377927780e-03</internalNodes>
          <leafValues>
            6.5062254667282104e-01 -2.8512701392173767e-01</leafValues></_>
        <_>
          <internalNodes>
            0 -1 170 -2.0553874783217907e-03</internalNodes>
          <leafValues>
            7.4662423133850098e-01 -2.5345090031623840e-01</leafValues></_>
        <_>
          <internalNodes>
            0 -1 24 -2.0071391190867871e-04</internalNodes>
          <leafValues>
            7.5996708869934082e-01 -2.1811051666736603e-01</leafValues></_>
        <_>
          <internalNodes>
            0 -1 57 3.9790421724319458e-03</internalNodes>
          <leafValues>
            2.5732222199440002e-01 -8.6601352691650391e-01</leafValues></_></weakClassifiers></_>
    <!-- stage 21 -->
    <_>
      <maxWeakCount>6</maxWeakCount>
      <stageThreshold>-1.2444749474525452e-01</stageThreshold>
      <weakClassifiers>
        <_>
          <internalNodes>
            0 -1 6 -1.1436673998832703e-01</internalNodes>
          <leafValues>
            -7.0588237047195435e-01 7.0781892538070679e-01</leafValues></_>
        <_>
          <internalNodes>
            0 -1 103 -8.3069759421050549e-04</internalNodes>
          <leafValues>
            6.3721370697021484e-01 -3.1017753481864929e-01</leafValues></_>
        <_>
          <internalNodes>
            0 -1 148 4.5532517135143280e-02</internalNodes>
          <leafValues>
            -4.1205134987831116e-01 6.0216563940048218e-01</leafValues></_>
        <_>
          <internalNodes>
            0 -1 93 3.6028961185365915e-03</internalNodes>
          <leafValues>
            -2.9035586118698120e-01 7.9282629489898682e-01</leafValues></_>
        <_>
          <internalNodes>
            0 -1 26 -1.0038234293460846e-02</internalNodes>
          <leafValues>
            4.4126531481742859e-01 -5.1417338848114014e-01</leafValues></_>
        <_>
          <internalNodes>
            0 -1 81 9.3229778576642275e-04</internalNodes>
          <leafValues>
            -2.5289949774742126e-01 8.3629894256591797e-01</leafValues></_></weakClassifiers></_>
    <!-- stage 22 -->
    <_>
      <maxWeakCount>6</maxWeakCount>
      <stageThreshold>-3.0430969595909119e-01</stageThreshold>
      <weakClassifiers>
        <_>
          <internalNodes>
            0 -1 66 2.5576483458280563e-03</internalNodes>
          <leafValues>
            7.0040488243103027e-01 -1.</leafValues></_>
        <_>
          <internalNodes>
            0 -1 145 2.3060949388309382e-05</internalNodes>
          <leafValues>
            -5.2905583381652832e-01 4.9972918629646301e-01</leafValues></_>
        <_>
          <internalNodes>
            0 -1 162 2.7926387265324593e-03</internalNodes>
          <leafValues>
            -3.1111156940460205e-01 6.5027987957000732e-01</leafValues></_>
        <_>
          <internalNodes>
            0 -1 139 -7.4285420123487711e-04</internalNodes>
          <leafValues>
            6.2188035249710083e-01 -3.0713745951652527e-01</leafValues></_>
        <_>
          <internalNodes>
            0 -1 56 -7.0401998236775398e-03</internalNodes>
          <leafValues>
            6.7738854885101318e-01 -3.3254706859588623e-01</leafValues></_>
        <_>
          <internalNodes>
            0 -1 36 1.2131193652749062e-03</internalNodes>
          <leafValues>
            -4.5388039946556091e-01 5.5237394571304321e-01</leafValues></_></weakClassifiers></_>
    <!-- stage 23 -->
    <_>
      <maxWeakCount>8</maxWeakCount>
      <stageThreshold>3.5637307167053223e-01</stageThreshold>
      <weakClassifiers>
        <_>
          <internalNodes>
            0 -1 37 1.5757367946207523e-03</internalNodes>
          <leafValues>
            6.9354838132858276e-01 -1.</leafValues></_>
        <_>
          <internalNodes>
            0 -1 111 1.8159690080210567e-04</internalNodes>
          <leafValues>
            -3.1253138184547424e-01 6.7608278989791870e-01</leafValues></_>
        <_>
          <internalNodes>
            0 -1 122 -1.5106544014997780e-04</internalNodes>
          <leafValues>
            3.1221413612365723e-01 -6.6075927019119263e-01</leafValues></_>
        <_>
          <internalNodes>
            0 -1 83 -3.4410399384796619e-03</internalNodes>
          <leafValues>
            6.9185054302215576e-01 -2.7845492959022522e-01</leafValues></_>
        <_>
          <internalNodes>
            0 -1 92 2.1271626465022564e-03</internalNodes>
          <leafValues>
            -2.9903069138526917e-01 7.2218638658523560e-01</leafValues></_>
        <_>
          <internalNodes>
            0 -1 119 1.6518856864422560e-04</internalNodes>
          <leafValues>
            -2.0992895960807800e-01 7.7298343181610107e-01</leafValues></_>
        <_>
          <internalNodes>
            0 -1 167 -9.4266645610332489e-03</internalNodes>
          <leafValues>
            2.7769136428833008e-01 -7.1760290861129761e-01</leafValues></_>
        <_>
          <internalNodes>
            0 -1 11 -3.9816923439502716e-02</internalNodes>
          <leafValues>
            -8.1004720926284790e-01 2.1325275301933289e-01</leafValues></_></weakClassifiers></_>
    <!-- stage 24 -->
    <_>
      <maxWeakCount>6</maxWeakCount>
      <stageThreshold>-4.7850048542022705e-01</stageThreshold>
      <weakClassifiers>
        <_>
          <internalNodes>
            0 -1 60 -1.0864014923572540e-01</internalNodes>
          <leafValues>
            -5.8974361419677734e-01 7.1309769153594971e-01</leafValues></_>
        <_>
          <internalNodes>
            0 -1 109 3.2429723069071770e-03</internalNodes>
          <leafValues>
            -1.4499761164188385e-01 8.8485473394393921e-01</leafValues></_>
        <_>
          <internalNodes>
            0 -1 18 3.0220057815313339e-03</internalNodes>
          <leafValues>
            -6.1788386106491089e-01 3.9775252342224121e-01</leafValues></_>
        <_>
          <internalNodes>
            0 -1 72 -5.3851618431508541e-03</internalNodes>
          <leafValues>
            4.8902127146720886e-01 -4.6093299984931946e-01</leafValues></_>
        <_>
          <internalNodes>
            0 -1 126 3.9289952837862074e-05</internalNodes>
          <leafValues>
            -3.3394116163253784e-01 6.8297034502029419e-01</leafValues></_>
        <_>
          <internalNodes>
            0 -1 77 -1.0180531069636345e-02</internalNodes>
          <leafValues>
            -6.9331806898117065e-01 3.6615744233131409e-01</leafValues></_></weakClassifiers></_>
    <!-- stage 25 -->
    <_>
      <maxWeakCount>9</maxWeakCount>
      <stageThreshold>2.6435586810112000e-01</stageThreshold>
      <weakClassifiers>
        <_>
          <internalNodes>
            0 -1 155 5.4212667047977448e-02</internalNodes>
          <leafValues>
            7.0385396480560303e-01 -1.</leafValues></_>
        <_>
          <internalNodes>
            0 -1 125 2.1535382256843150e-04</internalNodes>
          <leafValues>
            -1.5332899987697601e-01 8.2715696096420288e-01</leafValues></_>
        <_>
          <internalNodes>
            0 -1 171 -7.1216952055692673e-03</internalNodes>
          <leafValues>
            7.5403970479965210e-01 -2.7399361133575439e-01</leafValues></_>
        <_>
          <internalNodes>
            0 -1 38 5.7649356313049793e-04</internalNodes>
          <leafValues>
            -2.8699579834938049e-01 6.7692732810974121e-01</leafValues></_>
        <_>
          <internalNodes>
            0 -1 146 2.8139870846644044e-04</internalNodes>
          <leafValues>
            -2.3965391516685486e-01 7.9758036136627197e-01</leafValues></_>
        <_>
          <internalNodes>
            0 -1 152 -5.0785858184099197e-04</internalNodes>
          <leafValues>
            7.4262768030166626e-01 -2.1141503751277924e-01</leafValues></_>
        <_>
          <internalNodes>
            0 -1 31 -2.6192329823970795e-02</internalNodes>
          <leafValues>
            2.5863823294639587e-01 -7.9679387807846069e-01</leafValues></_>
        <_>
          <internalNodes>
            0 -1 153 -1.6577142523601651e-03</internalNodes>
          <leafValues>
            8.9883983135223389e-01 -2.7566772699356079e-01</leafValues></_>
        <_>
          <internalNodes>
            0 -1 151 -6.6595000680536032e-04</internalNodes>
          <leafValues>
            8.5368937253952026e-01 -2.1016833186149597e-01</leafValues></_></weakClassifiers></_>
    <!-- stage 26 -->
    <_>
      <maxWeakCount>7</maxWeakCount>
      <stageThreshold>-3.0063340067863464e-01</stageThreshold>
      <weakClassifiers>
        <_>
          <internalNodes>
            0 -1 138 1.7300607869401574e-03</internalNodes>
          <leafValues>
            -6.0869562625885010e-01 7.3417723178863525e-01</leafValues></_>
        <_>
          <internalNodes>
            0 -1 39 -1.2292699888348579e-02</internalNodes>
          <leafValues>
            -6.0064119100570679e-01 5.3422617912292480e-01</leafValues></_>
        <_>
          <internalNodes>
            0 -1 147 -7.6091877417638898e-05</internalNodes>
          <leafValues>
            4.2831429839134216e-01 -5.2981376647949219e-01</leafValues></_>
        <_>
          <internalNodes>
            0 -1 49 -4.6313581988215446e-03</internalNodes>
          <leafValues>
            5.4616856575012207e-01 -4.8187682032585144e-01</leafValues></_>
        <_>
          <internalNodes>
            0 -1 169 1.5706107660662383e-05</internalNodes>
          <leafValues>
            -2.9991888999938965e-01 7.4070721864700317e-01</leafValues></_>
        <_>
          <internalNodes>
            0 -1 127 6.8587214627768844e-05</internalNodes>
          <leafValues>
            -3.8067546486854553e-01 6.5337318181991577e-01</leafValues></_>
        <_>
          <internalNodes>
            0 -1 13 9.9474443122744560e-03</internalNodes>
          <leafValues>
            -7.8450429439544678e-01 2.9998740553855896e-01</leafValues></_></weakClassifiers></_>
    <!-- stage 27 -->
    <_>
      <maxWeakCount>5</maxWeakCount>
      <stageThreshold>-3.3301571011543274e-01</stageThreshold>
      <weakClassifiers>
        <_>
          <internalNodes>
            0 -1 2 1.5677298652008176e-03</internalNodes>
          <leafValues>
            -7.9487180709838867e-01 7.2972971200942993e-01</leafValues></_>
        <_>
          <internalNodes>
            0 -1 121 -2.4552669856348075e-05</internalNodes>
          <leafValues>
            6.3669699430465698e-01 -4.9993768334388733e-01</leafValues></_>
        <_>
          <internalNodes>
            0 -1 156 -4.1665497701615095e-04</internalNodes>
          <leafValues>
            4.8219648003578186e-01 -5.9067803621292114e-01</leafValues></_>
        <_>
          <internalNodes>
            0 -1 95 6.1884671449661255e-03</internalNodes>
          <leafValues>
            -3.0609005689620972e-01 8.8844025135040283e-01</leafValues></_>
        <_>
          <internalNodes>
            0 -1 34 -9.9497416522353888e-04</internalNodes>
          <leafValues>
            7.2192716598510742e-01 -3.9719650149345398e-01</leafValues></_></weakClassifiers></_>
    <!-- stage 28 -->
    <_>
      <maxWeakCount>7</maxWeakCount>
      <stageThreshold>-6.7640382051467896e-01</stageThreshold>
      <weakClassifiers>
        <_>
          <internalNodes>
            0 -1 145 2.3060949388309382e-05</internalNodes>
          <leafValues>
            -5.1724139600992203e-02 8.0693072080612183e-01</leafValues></_>
        <_>
          <internalNodes>
            0 -1 52 4.2785596451722085e-04</internalNodes>
          <leafValues>
            5.9664583206176758e-01 -3.5593065619468689e-01</leafValues></_>
        <_>
          <internalNodes>
            0 -1 67 -5.1138596609234810e-03</internalNodes>
          <leafValues>
            -7.6210033893585205e-01 2.8550150990486145e-01</leafValues></_>
        <_>
          <internalNodes>
            0 -1 115 1.6404115740442649e-05</internalNodes>
          <leafValues>
            -3.6342954635620117e-01 7.2163885831832886e-01</leafValues></_>
        <_>
          <internalNodes>
            0 -1 91 7.8062890679575503e-05</internalNodes>
          <leafValues>
            -2.8486719727516174e-01 7.1634501218795776e-01</leafValues></_>
        <_>
          <internalNodes>
            0 -1 85 -4.5827258145436645e-04</internalNodes>
          <leafValues>
            4.8867088556289673e-01 -5.5760896205902100e-01</leafValues></_>
        <_>
          <internalNodes>
            0 -1 87 1.0507329716347158e-04</internalNodes>
          <leafValues>
            -3.4955704212188721e-01 6.4158773422241211e-01</leafValues></_></weakClassifiers></_>
    <!-- stage 29 -->
    <_>
      <maxWeakCount>8</maxWeakCount>
      <stageThreshold>-6.3006293773651123e-01</stageThreshold>
      <weakClassifiers>
        <_>
          <internalNodes>
            0 -1 113 4.5677609741687775e-03</internalNodes>
          <leafValues>
            7.2141373157501221e-01 -6.9230771064758301e-01</leafValues></_>
        <_>
          <internalNodes>
            0 -1 44 -8.6750101763755083e-04</internalNodes>
          <leafValues>
            6.4643025398254395e-01 -3.3228263258934021e-01</leafValues></_>
        <_>
          <internalNodes>
            0 -1 55 4.4285980984568596e-03</internalNodes>
          <leafValues>
            -5.7907360792160034e-01 4.1497588157653809e-01</leafValues></_>
        <_>
          <internalNodes>
            0 -1 154 -7.6306844130158424e-03</internalNodes>
          <leafValues>
            5.6186008453369141e-01 -3.8404864072799683e-01</leafValues></_>
        <_>
          <internalNodes>
            0 -1 1 1.1638948926702142e-03</internalNodes>
          <leafValues>
            5.4033911228179932e-01 -4.1421627998352051e-01</leafValues></_>
        <_>
          <internalNodes>
            0 -1 118 8.9211286976933479e-03</internalNodes>
          <leafValues>
            -5.3410530090332031e-01 4.6589881181716919e-01</leafValues></_>
        <_>
          <internalNodes>
            0 -1 124 7.0267741102725267e-04</internalNodes>
          <leafValues>
            2.4333599209785461e-01 -8.4286975860595703e-01</leafValues></_>
        <_>
          <internalNodes>
            0 -1 106 1.6514877643203363e-05</internalNodes>
          <leafValues>
            -3.5109028220176697e-01 7.1044021844863892e-01</leafValues></_></weakClassifiers></_></stages>
  <features>
    <_>
      <rects>
        <_>
          0 0 6 6 -1.</_>
        <_>
          0 0 3 3 2.</_>
        <_>
          3 3 3 3 2.</_></rects>
      <tilted>0</tilted></_>
    <_>
      <rects>
        <_>
          0 0 12 2 -1.</_>
        <_>
          4 0 4 2 3.</_></rects>
      <tilted>0</tilted></_>
    <_>
      <rects>
        <_>
          0 0 24 18 -1.</_>
        <_>
          8 0 8 18 3.</_></rects>
      <tilted>0</tilted></_>
    <_>
      <rects>
        <_>
          0 0 16 15 -1.</_>
        <_>
          0 5 16 5 3.</_></rects>
      <tilted>0</tilted></_>
    <_>
      <rects>
        <_>
          0 1 6 13 -1.</_>
        <_>
          3 1 3 13 2.</_></rects>
      <tilted>0</tilted></_>
    <_>
      <rects>
        <_>
          0 1 6 18 -1.</_>
        <_>
          3 1 3 18 2.</_></rects>
      <tilted>0</tilted></_>
    <_>
      <rects>
        <_>
          0 1 20 16 -1.</_>
        <_>
          0 1 10 8 2.</_>
        <_>
          10 9 10 8 2.</_></rects>
      <tilted>0</tilted></_>
    <_>
      <rects>
        <_>
          0 2 6 6 -1.</_>
        <_>
          0 2 3 3 2.</_>
        <_>
          3 5 3 3 2.</_></rects>
      <tilted>0</tilted></_>
    <_>
      <rects>
        <_>
          0 2 6 6 -1.</_>
        <_>
          3 2 3 6 2.</_></rects>
      <tilted>0</tilted></_>
    <_>
      <rects>
        <_>
          0 2 22 22 -1.</_>
        <_>
          0 2 11 11 2.</_>
        <_>
          11 13 11 11 2.</_></rects>
      <tilted>0</tilted></_>
    <_>
      <rects>
        <_>
          0 3 6 19 -1.</_>
        <_>
          3 3 3 19 2.</_></rects>
      <tilted>0</tilted></_>
    <_>
      <rects>
        <_>
          0 3 22 5 -1.</_>
        <_>
          11 3 11 5 2.</_></rects>
      <tilted>0</tilted></_>
    <_>
      <rects>
        <_>
          0 4 9 12 -1.</_>
        <_>
          3 4 3 12 3.</_></rects>
      <tilted>0</tilted></_>
    <_>
      <rects>
        <_>
          0 4 15 14 -1.</_>
        <_>
          5 4 5 14 3.</_></rects>
      <tilted>0</tilted></_>
    <_>
      <rects>
        <_>
          0 5 6 12 -1.</_>
        <_>
          2 5 2 12 3.</_></rects>
      <tilted>0</tilted></_>
    <_>
      <rects>
        <_>
          0 5 9 11 -1.</_>
        <_>
          3 5 3 11 3.</_></rects>
      <tilted>0</tilted></_>
    <_>
      <rects>
        <_>
          0 5 6 12 -1.</_>
        <_>
          3 5 3 12 2.</_></rects>
      <tilted>0</tilted></_>
    <_>
      <rects>
        <_>
          0 5 9 12 -1.</_>
        <_>
          3 5 3 12 3.</_></rects>
      <tilted>0</tilted></_>
    <_>
      <rects>
        <_>
          0 12 12 9 -1.</_>
        <_>
          4 12 4 9 3.</_></rects>
      <tilted>0</tilted></_>
    <_>
      <rects>
        <_>
          0 12 18 3 -1.</_>
        <_>
          9 12 9 3 2.</_></rects>
      <tilted>0</tilted></_>
    <_>
      <rects>
        <_>
          0 14 2 6 -1.</_>
        <_>
          0 14 1 3 2.</_>
        <_>
          1 17 1 3 2.</_></rects>
      <tilted>0</tilted></_>
    <_>
      <rects>
        <_>
          0 15 24 3 -1.</_>
        <_>
          8 15 8 3 3.</_></rects>
      <tilted>0</tilted></_>
    <_>
      <rects>
        <_>
          0 18 2 3 -1.</_>
        <_>
          1 18 1 3 2.</_></rects>
      <tilted>0</tilted></_>
    <_>
      <rects>
        <_>
          0 21 16 2 -1.</_>
        <_>
          0 21 8 1 2.</_>
        <_>
          8 22 8 1 2.</_></rects>
      <tilted>0</tilted></_>
    <_>
      <rects>
        <_>
          1 7 2 2 -1.</_>
        <_>
          1 7 1 1 2.</_>
        <_>
          2 8 1 1 2.</_></rects>
      <tilted>0</tilted></_>
    <_>
      <rects>
        <_>
          1 8 20 9 -1.</_>
        <_>
          11 8 10 9 2.</_></rects>
      <tilted>0</tilted></_>
    <_>
      <rects>
        <_>
          1 18 18 6 -1.</_>
        <_>
          1 18 9 3 2.</_>
        <_>
          10 21 9 3 2.</_></rects>
      <tilted>0</tilted></_>
    <_>
      <rects>
        <_>
          2 0 8 8 -1.</_>
        <_>
          2 4 8 4 2.</_></rects>
      <tilted>0</tilted></_>
    <_>
      <rects>
        <_>
          2 0 20 12 -1.</_>
        <_>
          2 4 20 4 3.</_></rects>
      <tilted>0</tilted></_>
    <_>
      <rects>
        <_>
          2 3 4 2 -1.</_>
        <_>
          2 3 2 1 2.</_>
        <_>
          4 4 2 1 2.</_></rects>
      <tilted>0</tilted></_>
    <_>
      <rects>
        <_>
          2 14 7 10 -1.</_>
        <_>
          2 19 7 5 2.</_></rects>
      <tilted>0</tilted></_>
    <_>
      <rects>
        <_>
          2 14 10 10 -1.</_>
        <_>
          2 19 10 5 2.</_></rects>
      <tilted>0</tilted></_>
    <_>
      <rects>
        <_>
          2 17 9 7 -1.</_>
        <_>
          5 17 3 7 3.</_></rects>
      <tilted>0</tilted></_>
    <_>
      <rects>
        <_>
          3 0 16 3 -1.</_>
        <_>
          11 0 8 3 2.</_></rects>
      <tilted>0</tilted></_>
    <_>
      <rects>
        <_>
          3 5 4 4 -1.</_>
        <_>
          3 5 2 2 2.</_>
        <_>
          5 7 2 2 2.</_></rects>
      <tilted>0</tilted></_>
    <_>
      <rects>
        <_>
          3 6 16 18 -1.</_>
        <_>
          3 15 16 9 2.</_></rects>
      <tilted>0</tilted></_>
    <_>
      <rects>
        <_>
          3 15 6 4 -1.</_>
        <_>
          3 15 3 2 2.</_>
        <_>
          6 17 3 2 2.</_></rects>
      <tilted>0</tilted></_>
    <_>
      <rects>
        <_>
          3 16 15 2 -1.</_>
        <_>
          3 17 15 1 2.</_></rects>
      <tilted>0</tilted></_>
    <_>
      <rects>
        <_>
          3 17 6 2 -1.</_>
        <_>
          3 17 3 1 2.</_>
        <_>
          6 18 3 1 2.</_></rects>
      <tilted>0</tilted></_>
    <_>
      <rects>
        <_>
          3 17 9 4 -1.</_>
        <_>
          3 19 9 2 2.</_></rects>
      <tilted>0</tilted></_>
    <_>
      <rects>
        <_>
          3 21 9 1 -1.</_>
        <_>
          6 21 3 1 3.</_></rects>
      <tilted>0</tilted></_>
    <_>
      <rects>
        <_>
          4 0 2 9 -1.</_>
        <_>
          4 3 2 3 3.</_></rects>
      <tilted>0</tilted></_>
    <_>
      <rects>
        <_>
          4 0 3 9 -1.</_>
        <_>
          4 3 3 3 3.</_></rects>
      <tilted>0</tilted></_>
    <_>
      <rects>
        <_>
          4 4 4 2 -1.</_>
        <_>
          4 4 2 1 2.</_>
        <_>
          6 5 2 1 2.</_></rects>
      <tilted>0</tilted></_>
    <_>
      <rects>
        <_>
          4 4 12 3 -1.</_>
        <_>
          8 4 4 3 3.</_></rects>
      <tilted>0</tilted></_>
    <_>
      <rects>
        <_>
          4 16 9 2 -1.</_>
        <_>
          4 17 9 1 2.</_></rects>
      <tilted>0</tilted></_>
    <_>
      <rects>
        <_>
          5 0 3 9 -1.</_>
        <_>
          5 3 3 3 3.</_></rects>
      <tilted>0</tilted></_>
    <_>
      <rects>
        <_>
          5 1 12 11 -1.</_>
        <_>
          11 1 6 11 2.</_></rects>
      <tilted>0</tilted></_>
    <_>
      <rects>
        <_>
          5 3 6 13 -1.</_>
        <_>
          7 3 2 13 3.</_></rects>
      <tilted>0</tilted></_>
    <_>
      <rects>
        <_>
          5 3 3 6 -1.</_>
        <_>
          5 6 3 3 2.</_></rects>
      <tilted>0</tilted></_>
    <_>
      <rects>
        <_>
          5 4 15 12 -1.</_>
        <_>
          10 4 5 12 3.</_></rects>
      <tilted>0</tilted></_>
    <_>
      <rects>
        <_>
          5 5 4 11 -1.</_>
        <_>
          7 5 2 11 2.</_></rects>
      <tilted>0</tilted></_>
    <_>
      <rects>
        <_>
          5 5 9 6 -1.</_>
        <_>
          8 5 3 6 3.</_></rects>
      <tilted>0</tilted></_>
    <_>
      <rects>
        <_>
          5 6 8 7 -1.</_>
        <_>
          9 6 4 7 2.</_></rects>
      <tilted>0</tilted></_>
    <_>
      <rects>
        <_>
          5 9 10 15 -1.</_>
        <_>
          5 14 10 5 3.</_></rects>
      <tilted>0</tilted></_>
    <_>
      <rects>
        <_>
          5 10 18 6 -1.</_>
        <_>
          11 10 6 6 3.</_></rects>
      <tilted>0</tilted></_>
    <_>
      <rects>
        <_>
          5 13 10 6 -1.</_>
        <_>
          10 13 5 6 2.</_></rects>
      <tilted>0</tilted></_>
    <_>
      <rects>
        <_>
          5 14 6 5 -1.</_>
        <_>
          7 14 2 5 3.</_></rects>
      <tilted>0</tilted></_>
    <_>
      <rects>
        <_>
          5 14 10 3 -1.</_>
        <_>
          5 15 10 1 3.</_></rects>
      <tilted>0</tilted></_>
    <_>
      <rects>
        <_>
          5 18 7 2 -1.</_>
        <_>
          5 19 7 1 2.</_></rects>
      <tilted>0</tilted></_>
    <_>
      <rects>
        <_>
          6 0 6 16 -1.</_>
        <_>
          6 8 6 8 2.</_></rects>
      <tilted>0</tilted></_>
    <_>
      <rects>
        <_>
          6 0 17 4 -1.</_>
        <_>
          6 2 17 2 2.</_></rects>
      <tilted>0</tilted></_>
    <_>
      <rects>
        <_>
          6 1 18 5 -1.</_>
        <_>
          15 1 9 5 2.</_></rects>
      <tilted>0</tilted></_>
    <_>
      <rects>
        <_>
          6 5 12 4 -1.</_>
        <_>
          10 5 4 4 3.</_></rects>
      <tilted>0</tilted></_>
    <_>
      <rects>
        <_>
          6 6 17 6 -1.</_>
        <_>
          6 8 17 2 3.</_></rects>
      <tilted>0</tilted></_>
    <_>
      <rects>
        <_>
          6 7 10 2 -1.</_>
        <_>
          6 7 5 1 2.</_>
        <_>
          11 8 5 1 2.</_></rects>
      <tilted>0</tilted></_>
    <_>
      <rects>
        <_>
          6 15 4 6 -1.</_>
        <_>
          6 18 4 3 2.</_></rects>
      <tilted>0</tilted></_>
    <_>
      <rects>
        <_>
          6 16 14 1 -1.</_>
        <_>
          13 16 7 1 2.</_></rects>
      <tilted>0</tilted></_>
    <_>
      <rects>
        <_>
          6 16 11 2 -1.</_>
        <_>
          6 17 11 1 2.</_></rects>
      <tilted>0</tilted></_>
    <_>
      <rects>
        <_>
          6 22 18 2 -1.</_>
        <_>
          12 22 6 2 3.</_></rects>
      <tilted>0</tilted></_>
    <_>
      <rects>
        <_>
          7 2 3 6 -1.</_>
        <_>
          7 4 3 2 3.</_></rects>
      <tilted>0</tilted></_>
    <_>
      <rects>
        <_>
          7 3 4 3 -1.</_>
        <_>
          7 4 4 1 3.</_></rects>
      <tilted>0</tilted></_>
    <_>
      <rects>
        <_>
          7 3 12 6 -1.</_>
        <_>
          11 3 4 6 3.</_></rects>
      <tilted>0</tilted></_>
    <_>
      <rects>
        <_>
          7 4 12 5 -1.</_>
        <_>
          11 4 4 5 3.</_></rects>
      <tilted>0</tilted></_>
    <_>
      <rects>
        <_>
          7 8 2 2 -1.</_>
        <_>
          7 8 1 1 2.</_>
        <_>
          8 9 1 1 2.</_></rects>
      <tilted>0</tilted></_>
    <_>
      <rects>
        <_>
          7 10 10 10 -1.</_>
        <_>
          7 15 10 5 2.</_></rects>
      <tilted>0</tilted></_>
    <_>
      <rects>
        <_>
          7 11 1 2 -1.</_>
        <_>
          7 12 1 1 2.</_></rects>
      <tilted>0</tilted></_>
    <_>
      <rects>
        <_>
          7 13 14 4 -1.</_>
        <_>
          7 15 14 2 2.</_></rects>
      <tilted>0</tilted></_>
    <_>
      <rects>
        <_>
          7 17 10 2 -1.</_>
        <_>
          7 18 10 1 2.</_></rects>
      <tilted>0</tilted></_>
    <_>
      <rects>
        <_>
          7 18 7 6 -1.</_>
        <_>
          7 20 7 2 3.</_></rects>
      <tilted>0</tilted></_>
    <_>
      <rects>
        <_>
          7 18 14 6 -1.</_>
        <_>
          7 21 14 3 2.</_></rects>
      <tilted>0</tilted></_>
    <_>
      <rects>
        <_>
          8 1 2 4 -1.</_>
        <_>
          8 1 1 2 2.</_>
        <_>
          9 3 1 2 2.</_></rects>
      <tilted>0</tilted></_>
    <_>
      <rects>
        <_>
          8 3 8 2 -1.</_>
        <_>
          8 4 8 1 2.</_></rects>
      <tilted>0</tilted></_>
    <_>
      <rects>
        <_>
          8 4 9 3 -1.</_>
        <_>
          8 5 9 1 3.</_></rects>
      <tilted>0</tilted></_>
    <_>
      <rects>
        <_>
          8 12 10 12 -1.</_>
        <_>
          8 16 10 4 3.</_></rects>
      <tilted>0</tilted></_>
    <_>
      <rects>
        <_>
          8 13 8 10 -1.</_>
        <_>
          8 13 4 5 2.</_>
        <_>
          12 18 4 5 2.</_></rects>
      <tilted>0</tilted></_>
    <_>
      <rects>
        <_>
          8 15 7 9 -1.</_>
        <_>
          8 18 7 3 3.</_></rects>
      <tilted>0</tilted></_>
    <_>
      <rects>
        <_>
          8 18 2 4 -1.</_>
        <_>
          8 18 1 2 2.</_>
        <_>
          9 20 1 2 2.</_></rects>
      <tilted>0</tilted></_>
    <_>
      <rects>
        <_>
          8 18 8 6 -1.</_>
        <_>
          8 21 8 3 2.</_></rects>
      <tilted>0</tilted></_>
    <_>
      <rects>
        <_>
          9 3 6 2 -1.</_>
        <_>
          9 4 6 1 2.</_></rects>
      <tilted>0</tilted></_>
    <_>
      <rects>
        <_>
          9 3 12 20 -1.</_>
        <_>
          9 3 6 10 2.</_>
        <_>
          15 13 6 10 2.</_></rects>
      <tilted>0</tilted></_>
    <_>
      <rects>
        <_>
          9 4 3 1 -1.</_>
        <_>
          10 4 1 1 3.</_></rects>
      <tilted>0</tilted></_>
    <_>
      <rects>
        <_>
          9 4 5 3 -1.</_>
        <_>
          9 5 5 1 3.</_></rects>
      <tilted>0</tilted></_>
    <_>
      <rects>
        <_>
          10 0 5 3 -1.</_>
        <_>
          10 1 5 1 3.</_></rects>
      <tilted>0</tilted></_>
    <_>
      <rects>
        <_>
          10 1 8 4 -1.</_>
        <_>
          10 1 4 2 2.</_>
        <_>
          14 3 4 2 2.</_></rects>
      <tilted>0</tilted></_>
    <_>
      <rects>
        <_>
          10 1 6 3 -1.</_>
        <_>
          10 2 6 1 3.</_></rects>
      <tilted>0</tilted></_>
    <_>
      <rects>
        <_>
          10 2 6 10 -1.</_>
        <_>
          13 2 3 10 2.</_></rects>
      <tilted>0</tilted></_>
    <_>
      <rects>
        <_>
          10 4 4 14 -1.</_>
        <_>
          12 4 2 14 2.</_></rects>
      <tilted>0</tilted></_>
    <_>
      <rects>
        <_>
          10 4 9 13 -1.</_>
        <_>
          13 4 3 13 3.</_></rects>
      <tilted>0</tilted></_>
    <_>
      <rects>
        <_>
          10 11 7 8 -1.</_>
        <_>
          10 15 7 4 2.</_></rects>
      <tilted>0</tilted></_>
    <_>
      <rects>
        <_>
          10 11 9 6 -1.</_>
        <_>
          10 14 9 3 2.</_></rects>
      <tilted>0</tilted></_>
    <_>
      <rects>
        <_>
          11 3 6 18 -1.</_>
        <_>
          11 9 6 6 3.</_></rects>
      <tilted>0</tilted></_>
    <_>
      <rects>
        <_>
          11 5 2 4 -1.</_>
        <_>
          11 5 1 2 2.</_>
        <_>
          12 7 1 2 2.</_></rects>
      <tilted>0</tilted></_>
    <_>
      <rects>
        <_>
          11 6 1 6 -1.</_>
        <_>
          11 8 1 2 3.</_></rects>
      <tilted>0</tilted></_>
    <_>
      <rects>
        <_>
          11 7 4 12 -1.</_>
        <_>
          11 7 2 6 2.</_>
        <_>
          13 13 2 6 2.</_></rects>
      <tilted>0</tilted></_>
    <_>
      <rects>
        <_>
          11 11 4 10 -1.</_>
        <_>
          13 11 2 10 2.</_></rects>
      <tilted>0</tilted></_>
    <_>
      <rects>
        <_>
          11 14 1 2 -1.</_>
        <_>
          11 15 1 1 2.</_></rects>
      <tilted>0</tilted></_>
    <_>
      <rects>
        <_>
          11 17 2 2 -1.</_>
        <_>
          11 18 2 1 2.</_></rects>
      <tilted>0</tilted></_>
    <_>
      <rects>
        <_>
          12 2 8 18 -1.</_>
        <_>
          12 2 4 9 2.</_>
        <_>
          16 11 4 9 2.</_></rects>
      <tilted>0</tilted></_>
    <_>
      <rects>
        <_>
          12 3 8 2 -1.</_>
        <_>
          12 3 4 1 2.</_>
        <_>
          16 4 4 1 2.</_></rects>
      <tilted>0</tilted></_>
    <_>
      <rects>
        <_>
          12 4 8 8 -1.</_>
        <_>
          12 8 8 4 2.</_></rects>
      <tilted>0</tilted></_>
    <_>
      <rects>
        <_>
          12 8 1 6 -1.</_>
        <_>
          12 11 1 3 2.</_></rects>
      <tilted>0</tilted></_>
    <_>
      <rects>
        <_>
          12 8 9 7 -1.</_>
        <_>
          15 8 3 7 3.</_></rects>
      <tilted>0</tilted></_>
    <_>
      <rects>
        <_>
          12 10 6 8 -1.</_>
        <_>
          14 10 2 8 3.</_></rects>
      <tilted>0</tilted></_>
    <_>
      <rects>
        <_>
          12 12 2 2 -1.</_>
        <_>
          12 12 1 1 2.</_>
        <_>
          13 13 1 1 2.</_></rects>
      <tilted>0</tilted></_>
    <_>
      <rects>
        <_>
          12 16 2 2 -1.</_>
        <_>
          12 16 1 1 2.</_>
        <_>
          13 17 1 1 2.</_></rects>
      <tilted>0</tilted></_>
    <_>
      <rects>
        <_>
          12 20 6 4 -1.</_>
        <_>
          12 20 3 2 2.</_>
        <_>
          15 22 3 2 2.</_></rects>
      <tilted>0</tilted></_>
    <_>
      <rects>
        <_>
          13 0 1 6 -1.</_>
        <_>
          13 2 1 2 3.</_></rects>
      <tilted>0</tilted></_>
    <_>
      <rects>
        <_>
          13 1 10 10 -1.</_>
        <_>
          13 1 5 5 2.</_>
        <_>
          18 6 5 5 2.</_></rects>
      <tilted>0</tilted></_>
    <_>
      <rects>
        <_>
          13 4 2 2 -1.</_>
        <_>
          13 4 1 1 2.</_>
        <_>
          14 5 1 1 2.</_></rects>
      <tilted>0</tilted></_>
    <_>
      <rects>
        <_>
          13 4 2 2 -1.</_>
        <_>
          13 5 2 1 2.</_></rects>
      <tilted>0</tilted></_>
    <_>
      <rects>
        <_>
          13 5 1 8 -1.</_>
        <_>
          13 9 1 4 2.</_></rects>
      <tilted>0</tilted></_>
    <_>
      <rects>
        <_>
          13 5 4 10 -1.</_>
        <_>
          13 10 4 5 2.</_></rects>
      <tilted>0</tilted></_>
    <_>
      <rects>
        <_>
          13 6 3 3 -1.</_>
        <_>
          13 7 3 1 3.</_></rects>
      <tilted>0</tilted></_>
    <_>
      <rects>
        <_>
          13 11 2 8 -1.</_>
        <_>
          14 11 1 8 2.</_></rects>
      <tilted>0</tilted></_>
    <_>
      <rects>
        <_>
          13 13 2 4 -1.</_>
        <_>
          13 13 1 2 2.</_>
        <_>
          14 15 1 2 2.</_></rects>
      <tilted>0</tilted></_>
    <_>
      <rects>
        <_>
          13 16 1 2 -1.</_>
        <_>
          13 17 1 1 2.</_></rects>
      <tilted>0</tilted></_>
    <_>
      <rects>
        <_>
          14 4 2 2 -1.</_>
        <_>
          14 4 1 1 2.</_>
        <_>
          15 5 1 1 2.</_></rects>
      <tilted>0</tilted></_>
    <_>
      <rects>
        <_>
          14 5 8 2 -1.</_>
        <_>
          14 5 4 1 2.</_>
        <_>
          18 6 4 1 2.</_></rects>
      <tilted>0</tilted></_>
    <_>
      <rects>
        <_>
          14 6 9 18 -1.</_>
        <_>
          14 15 9 9 2.</_></rects>
      <tilted>0</tilted></_>
    <_>
      <rects>
        <_>
          14 9 4 15 -1.</_>
        <_>
          14 14 4 5 3.</_></rects>
      <tilted>0</tilted></_>
    <_>
      <rects>
        <_>
          14 9 5 8 -1.</_>
        <_>
          14 13 5 4 2.</_></rects>
      <tilted>0</tilted></_>
    <_>
      <rects>
        <_>
          15 3 3 15 -1.</_>
        <_>
          15 8 3 5 3.</_></rects>
      <tilted>0</tilted></_>
    <_>
      <rects>
        <_>
          15 4 2 1 -1.</_>
        <_>
          16 4 1 1 2.</_></rects>
      <tilted>0</tilted></_>
    <_>
      <rects>
        <_>
          15 4 9 3 -1.</_>
        <_>
          18 4 3 3 3.</_></rects>
      <tilted>0</tilted></_>
    <_>
      <rects>
        <_>
          15 4 9 9 -1.</_>
        <_>
          18 4 3 9 3.</_></rects>
      <tilted>0</tilted></_>
    <_>
      <rects>
        <_>
          15 5 3 3 -1.</_>
        <_>
          15 6 3 1 3.</_></rects>
      <tilted>0</tilted></_>
    <_>
      <rects>
        <_>
          15 6 7 3 -1.</_>
        <_>
          15 7 7 1 3.</_></rects>
      <tilted>0</tilted></_>
    <_>
      <rects>
        <_>
          15 9 5 15 -1.</_>
        <_>
          15 14 5 5 3.</_></rects>
      <tilted>0</tilted></_>
    <_>
      <rects>
        <_>
          15 10 6 14 -1.</_>
        <_>
          17 10 2 14 3.</_></rects>
      <tilted>0</tilted></_>
    <_>
      <rects>
        <_>
          15 11 5 12 -1.</_>
        <_>
          15 15 5 4 3.</_></rects>
      <tilted>0</tilted></_>
    <_>
      <rects>
        <_>
          15 12 2 7 -1.</_>
        <_>
          16 12 1 7 2.</_></rects>
      <tilted>0</tilted></_>
    <_>
      <rects>
        <_>
          16 0 2 9 -1.</_>
        <_>
          16 3 2 3 3.</_></rects>
      <tilted>0</tilted></_>
    <_>
      <rects>
        <_>
          16 5 6 2 -1.</_>
        <_>
          16 5 3 1 2.</_>
        <_>
          19 6 3 1 2.</_></rects>
      <tilted>0</tilted></_>
    <_>
      <rects>
        <_>
          16 5 5 6 -1.</_>
        <_>
          16 7 5 2 3.</_></rects>
      <tilted>0</tilted></_>
    <_>
      <rects>
        <_>
          16 9 4 9 -1.</_>
        <_>
          16 12 4 3 3.</_></rects>
      <tilted>0</tilted></_>
    <_>
      <rects>
        <_>
          16 11 2 4 -1.</_>
        <_>
          16 11 1 2 2.</_>
        <_>
          17 13 1 2 2.</_></rects>
      <tilted>0</tilted></_>
    <_>
      <rects>
        <_>
          16 11 2 7 -1.</_>
        <_>
          17 11 1 7 2.</_></rects>
      <tilted>0</tilted></_>
    <_>
      <rects>
        <_>
          17 0 5 12 -1.</_>
        <_>
          17 4 5 4 3.</_></rects>
      <tilted>0</tilted></_>
    <_>
      <rects>
        <_>
          17 0 6 6 -1.</_>
        <_>
          17 3 6 3 2.</_></rects>
      <tilted>0</tilted></_>
    <_>
      <rects>
        <_>
          17 3 6 10 -1.</_>
        <_>
          19 3 2 10 3.</_></rects>
      <tilted>0</tilted></_>
    <_>
      <rects>
        <_>
          17 4 1 3 -1.</_>
        <_>
          17 5 1 1 3.</_></rects>
      <tilted>0</tilted></_>
    <_>
      <rects>
        <_>
          17 4 6 2 -1.</_>
        <_>
          17 4 3 1 2.</_>
        <_>
          20 5 3 1 2.</_></rects>
      <tilted>0</tilted></_>
    <_>
      <rects>
        <_>
          17 5 2 3 -1.</_>
        <_>
          17 6 2 1 3.</_></rects>
      <tilted>0</tilted></_>
    <_>
      <rects>
        <_>
          17 5 3 9 -1.</_>
        <_>
          17 8 3 3 3.</_></rects>
      <tilted>0</tilted></_>
    <_>
      <rects>
        <_>
          17 9 3 15 -1.</_>
        <_>
          17 14 3 5 3.</_></rects>
      <tilted>0</tilted></_>
    <_>
      <rects>
        <_>
          17 9 4 8 -1.</_>
        <_>
          17 13 4 4 2.</_></rects>
      <tilted>0</tilted></_>
    <_>
      <rects>
        <_>
          17 10 4 7 -1.</_>
        <_>
          19 10 2 7 2.</_></rects>
      <tilted>0</tilted></_>
    <_>
      <rects>
        <_>
          17 13 4 6 -1.</_>
        <_>
          19 13 2 6 2.</_></rects>
      <tilted>0</tilted></_>
    <_>
      <rects>
        <_>
          18 0 6 9 -1.</_>
        <_>
          21 0 3 9 2.</_></rects>
      <tilted>0</tilted></_>
    <_>
      <rects>
        <_>
          18 0 6 10 -1.</_>
        <_>
          21 0 3 10 2.</_></rects>
      <tilted>0</tilted></_>
    <_>
      <rects>
        <_>
          18 4 6 3 -1.</_>
        <_>
          21 4 3 3 2.</_></rects>
      <tilted>0</tilted></_>
    <_>
      <rects>
        <_>
          18 5 6 1 -1.</_>
        <_>
          20 5 2 1 3.</_></rects>
      <tilted>0</tilted></_>
    <_>
      <rects>
        <_>
          18 5 4 2 -1.</_>
        <_>
          18 5 2 1 2.</_>
        <_>
          20 6 2 1 2.</_></rects>
      <tilted>0</tilted></_>
    <_>
      <rects>
        <_>
          18 7 6 4 -1.</_>
        <_>
          20 7 2 4 3.</_></rects>
      <tilted>0</tilted></_>
    <_>
      <rects>
        <_>
          18 8 6 5 -1.</_>
        <_>
          20 8 2 5 3.</_></rects>
      <tilted>0</tilted></_>
    <_>
      <rects>
        <_>
          19 0 2 12 -1.</_>
        <_>
          19 4 2 4 3.</_></rects>
      <tilted>0</tilted></_>
    <_>
      <rects>
        <_>
          19 6 1 18 -1.</_>
        <_>
          19 15 1 9 2.</_></rects>
      <tilted>0</tilted></_>
    <_>
      <rects>
        <_>
          19 21 4 2 -1.</_>
        <_>
          19 22 4 1 2.</_></rects>
      <tilted>0</tilted></_>
    <_>
      <rects>
        <_>
          19 22 1 2 -1.</_>
        <_>
          19 23 1 1 2.</_></rects>
      <tilted>0</tilted></_>
    <_>
      <rects>
        <_>
          20 1 2 6 -1.</_>
        <_>
          20 1 1 3 2.</_>
        <_>
          21 4 1 3 2.</_></rects>
      <tilted>0</tilted></_>
    <_>
      <rects>
        <_>
          20 1 4 6 -1.</_>
        <_>
          20 1 2 3 2.</_>
        <_>
          22 4 2 3 2.</_></rects>
      <tilted>0</tilted></_>
    <_>
      <rects>
        <_>
          20 5 4 2 -1.</_>
        <_>
          22 5 2 2 2.</_></rects>
      <tilted>0</tilted></_>
    <_>
      <rects>
        <_>
          20 22 4 1 -1.</_>
        <_>
          22 22 2 1 2.</_></rects>
      <tilted>0</tilted></_>
    <_>
      <rects>
        <_>
          21 16 2 1 -1.</_>
        <_>
          22 16 1 1 2.</_></rects>
      <tilted>0</tilted></_>
    <_>
      <rects>
        <_>
          22 2 2 4 -1.</_>
        <_>
          22 2 1 2 2.</_>
        <_>
          23 4 1 2 2.</_></rects>
      <tilted>0</tilted></_>
    <_>
      <rects>
        <_>
          22 18 1 2 -1.</_>
        <_>
          22 19 1 1 2.</_></rects>
      <tilted>0</tilted></_>
    <_>
      <rects>
        <_>
          22 21 2 1 -1.</_>
        <_>
          23 21 1 1 2.</_></rects>
      <tilted>0</tilted></_></features></cascade>
</opencv_storage>
