<?xml version="1.0"?>
<opencv_storage>
<cascade>
  <stageType>BOOST</stageType>
  <featureType>HAAR</featureType>
  <height>24</height>
  <width>24</width>
  <stageParams>
    <boostType>GAB</boostType>
    <minHitRate>9.9500000476837158e-01</minHitRate>
    <maxFalseAlarm>5.0000000000000000e-01</maxFalseAlarm>
    <weightTrimRate>9.4999998807907104e-01</weightTrimRate>
    <maxDepth>1</maxDepth>
    <maxWeakCount>100</maxWeakCount></stageParams>
  <featureParams>
    <maxCatCount>0</maxCatCount>
    <featSize>1</featSize>
    <mode>BASIC</mode></featureParams>
  <stageNum>35</stageNum>
  <stages>
    <!-- stage 0 -->
    <_>
      <maxWeakCount>3</maxWeakCount>
      <stageThreshold>9.2452007532119751e-01</stageThreshold>
      <weakClassifiers>
        <_>
          <internalNodes>
            0 -1 34 -7.8047938644886017e-02</internalNodes>
          <leafValues>
            8.6004513502120972e-01 -7.9220777750015259e-01</leafValues></_>
        <_>
          <internalNodes>
            0 -1 90 -2.5122858583927155e-02</internalNodes>
          <leafValues>
            8.5384654998779297e-01 -7.7531373500823975e-01</leafValues></_>
        <_>
          <internalNodes>
            0 -1 27 5.7038672268390656e-02</internalNodes>
          <leafValues>
            -7.1354472637176514e-01 8.6288136243820190e-01</leafValues></_></weakClassifiers></_>
    <!-- stage 1 -->
    <_>
      <maxWeakCount>4</maxWeakCount>
      <stageThreshold>-2.4505369365215302e-02</stageThreshold>
      <weakClassifiers>
        <_>
          <internalNodes>
            0 -1 65 3.1425729393959045e-03</internalNodes>
          <leafValues>
            -5.5813956260681152e-01 8.4792625904083252e-01</leafValues></_>
        <_>
          <internalNodes>
            0 -1 73 3.0917599797248840e-02</internalNodes>
          <leafValues>
            5.9578168392181396e-01 -9.4778639078140259e-01</leafValues></_>
        <_>
          <internalNodes>
            0 -1 103 3.6830920726060867e-03</internalNodes>
          <leafValues>
            -7.9566341638565063e-01 5.9767961502075195e-01</leafValues></_>
        <_>
          <internalNodes>
            0 -1 172 -1.1806330643594265e-02</internalNodes>
          <leafValues>
            7.3351591825485229e-01 -6.5758740901947021e-01</leafValues></_></weakClassifiers></_>
    <!-- stage 2 -->
    <_>
      <maxWeakCount>4</maxWeakCount>
      <stageThreshold>3.1312141567468643e-02</stageThreshold>
      <weakClassifiers>
        <_>
          <internalNodes>
            0 -1 108 3.7203125655651093e-02</internalNodes>
          <leafValues>
            7.7070063352584839e-01 -8.7755101919174194e-01</leafValues></_>
        <_>
          <internalNodes>
            0 -1 13 2.2472340613603592e-02</internalNodes>
          <leafValues>
            -5.0728875398635864e-01 6.9582086801528931e-01</leafValues></_>
        <_>
          <internalNodes>
            0 -1 160 5.3661167621612549e-03</internalNodes>
          <leafValues>
            -5.1439779996871948e-01 6.7956757545471191e-01</leafValues></_>
        <_>
          <internalNodes>
            0 -1 60 -5.8337271213531494e-02</internalNodes>
          <leafValues>
            -9.1166734695434570e-01 3.8001763820648193e-01</leafValues></_></weakClassifiers></_>
    <!-- stage 3 -->
    <_>
      <maxWeakCount>5</maxWeakCount>
      <stageThreshold>-5.4159158468246460e-01</stageThreshold>
      <weakClassifiers>
        <_>
          <internalNodes>
            0 -1 7 1.6115756705403328e-02</internalNodes>
          <leafValues>
            -3.9393940567970276e-01 8.5273158550262451e-01</leafValues></_>
        <_>
          <internalNodes>
            0 -1 149 2.2246520966291428e-03</internalNodes>
          <leafValues>
            -8.2113957405090332e-01 5.5556029081344604e-01</leafValues></_>
        <_>
          <internalNodes>
            0 -1 58 1.6266943886876106e-02</internalNodes>
          <leafValues>
            -4.5349371433258057e-01 7.1203547716140747e-01</leafValues></_>
        <_>
          <internalNodes>
            0 -1 179 -1.6941754147410393e-03</internalNodes>
          <leafValues>
            5.0367003679275513e-01 -5.6058418750762939e-01</leafValues></_>
        <_>
          <internalNodes>
            0 -1 120 2.1362686529755592e-03</internalNodes>
          <leafValues>
            3.1086543202400208e-01 -9.5981162786483765e-01</leafValues></_></weakClassifiers></_>
    <!-- stage 4 -->
    <_>
      <maxWeakCount>2</maxWeakCount>
      <stageThreshold>-2.0175894722342491e-02</stageThreshold>
      <weakClassifiers>
        <_>
          <internalNodes>
            0 -1 6 5.6548218708485365e-04</internalNodes>
          <leafValues>
            -8.2857143878936768e-01 8.3999997377395630e-01</leafValues></_>
        <_>
          <internalNodes>
            0 -1 76 -7.2255049599334598e-04</internalNodes>
          <leafValues>
            8.0839550495147705e-01 -4.3027800321578979e-01</leafValues></_></weakClassifiers></_>
    <!-- stage 5 -->
    <_>
      <maxWeakCount>4</maxWeakCount>
      <stageThreshold>2.3759874701499939e-01</stageThreshold>
      <weakClassifiers>
        <_>
          <internalNodes>
            0 -1 89 -1.4267752878367901e-02</internalNodes>
          <leafValues>
            -7.0909088850021362e-01 7.7204298973083496e-01</leafValues></_>
        <_>
          <internalNodes>
            0 -1 167 5.9941723011434078e-03</internalNodes>
          <leafValues>
            -3.9557504653930664e-01 7.2306346893310547e-01</leafValues></_>
        <_>
          <internalNodes>
            0 -1 123 1.8559683114290237e-02</internalNodes>
          <leafValues>
            -2.6359936594963074e-01 9.0296089649200439e-01</leafValues></_>
        <_>
          <internalNodes>
            0 -1 168 -1.6475777374580503e-04</internalNodes>
          <leafValues>
            4.8722553253173828e-01 -6.6006505489349365e-01</leafValues></_></weakClassifiers></_>
    <!-- stage 6 -->
    <_>
      <maxWeakCount>1</maxWeakCount>
      <stageThreshold>7.9828327894210815e-01</stageThreshold>
      <weakClassifiers>
        <_>
          <internalNodes>
            0 -1 30 -1.5646898746490479e-01</internalNodes>
          <leafValues>
            -9.6296298503875732e-01 7.9828327894210815e-01</leafValues></_></weakClassifiers></_>
    <!-- stage 7 -->
    <_>
      <maxWeakCount>5</maxWeakCount>
      <stageThreshold>-2.9206445813179016e-01</stageThreshold>
      <weakClassifiers>
        <_>
          <internalNodes>
            0 -1 17 -1.6951084136962891e-02</internalNodes>
          <leafValues>
            -7.3770493268966675e-01 7.9520696401596069e-01</leafValues></_>
        <_>
          <internalNodes>
            0 -1 170 3.9479304105043411e-03</internalNodes>
          <leafValues>
            -3.4324687719345093e-01 8.1055223941802979e-01</leafValues></_>
        <_>
          <internalNodes>
            0 -1 68 2.0989109762012959e-03</internalNodes>
          <leafValues>
            5.1903814077377319e-01 -6.8145608901977539e-01</leafValues></_>
        <_>
          <internalNodes>
            0 -1 147 2.7871949714608490e-04</internalNodes>
          <leafValues>
            -4.5108851790428162e-01 6.6288203001022339e-01</leafValues></_>
        <_>
          <internalNodes>
            0 -1 132 6.4879648562055081e-05</internalNodes>
          <leafValues>
            -3.8486996293067932e-01 7.2093772888183594e-01</leafValues></_></weakClassifiers></_>
    <!-- stage 8 -->
    <_>
      <maxWeakCount>5</maxWeakCount>
      <stageThreshold>-7.4695384502410889e-01</stageThreshold>
      <weakClassifiers>
        <_>
          <internalNodes>
            0 -1 11 6.0745389200747013e-03</internalNodes>
          <leafValues>
            -3.6082473397254944e-01 8.3924347162246704e-01</leafValues></_>
        <_>
          <internalNodes>
            0 -1 181 2.2143154637888074e-05</internalNodes>
          <leafValues>
            -3.2182618975639343e-01 7.8339821100234985e-01</leafValues></_>
        <_>
          <internalNodes>
            0 -1 129 3.9091785438358784e-03</internalNodes>
          <leafValues>
            -4.0610513091087341e-01 7.5802224874496460e-01</leafValues></_>
        <_>
          <internalNodes>
            0 -1 66 3.0802606488578022e-05</internalNodes>
          <leafValues>
            -3.8636907935142517e-01 7.9206174612045288e-01</leafValues></_>
        <_>
          <internalNodes>
            0 -1 176 1.1676880531013012e-02</internalNodes>
          <leafValues>
            -4.5025950670242310e-01 6.6335570812225342e-01</leafValues></_></weakClassifiers></_>
    <!-- stage 9 -->
    <_>
      <maxWeakCount>4</maxWeakCount>
      <stageThreshold>-6.5742063522338867e-01</stageThreshold>
      <weakClassifiers>
        <_>
          <internalNodes>
            0 -1 169 -5.6616505607962608e-03</internalNodes>
          <leafValues>
            7.8733032941818237e-01 -3.5897436738014221e-01</leafValues></_>
        <_>
          <internalNodes>
            0 -1 125 8.7471809238195419e-03</internalNodes>
          <leafValues>
            5.5173152685165405e-01 -6.9581133127212524e-01</leafValues></_>
        <_>
          <internalNodes>
            0 -1 0 7.9755578190088272e-03</internalNodes>
          <leafValues>
            -4.7304686903953552e-01 8.2371938228607178e-01</leafValues></_>
        <_>
          <internalNodes>
            0 -1 171 1.2569747865200043e-02</internalNodes>
          <leafValues>
            -4.2635434865951538e-01 7.5232309103012085e-01</leafValues></_></weakClassifiers></_>
    <!-- stage 10 -->
    <_>
      <maxWeakCount>7</maxWeakCount>
      <stageThreshold>-2.8483703732490540e-01</stageThreshold>
      <weakClassifiers>
        <_>
          <internalNodes>
            0 -1 38 -5.8295729104429483e-04</internalNodes>
          <leafValues>
            7.2073924541473389e-01 -9.3939393758773804e-01</leafValues></_>
        <_>
          <internalNodes>
            0 -1 56 1.4405015856027603e-02</internalNodes>
          <leafValues>
            -2.9409575462341309e-01 8.5916519165039063e-01</leafValues></_>
        <_>
          <internalNodes>
            0 -1 154 -2.3625500034540892e-03</internalNodes>
          <leafValues>
            6.3915109634399414e-01 -3.6880841851234436e-01</leafValues></_>
        <_>
          <internalNodes>
            0 -1 138 3.4848395735025406e-03</internalNodes>
          <leafValues>
            -3.0000025033950806e-01 8.3331453800201416e-01</leafValues></_>
        <_>
          <internalNodes>
            0 -1 137 -1.1506418231874704e-03</internalNodes>
          <leafValues>
            8.6025917530059814e-01 -2.8227299451828003e-01</leafValues></_>
        <_>
          <internalNodes>
            0 -1 131 -3.0238695908337831e-03</internalNodes>
          <leafValues>
            9.9405467510223389e-01 -1.9953136146068573e-01</leafValues></_>
        <_>
          <internalNodes>
            0 -1 18 9.6322491299360991e-04</internalNodes>
          <leafValues>
            -6.3497221469879150e-01 4.3913254141807556e-01</leafValues></_></weakClassifiers></_>
    <!-- stage 11 -->
    <_>
      <maxWeakCount>6</maxWeakCount>
      <stageThreshold>3.6348875612020493e-02</stageThreshold>
      <weakClassifiers>
        <_>
          <internalNodes>
            0 -1 166 2.4884857703000307e-04</internalNodes>
          <leafValues>
            -5.6363636255264282e-01 7.5483870506286621e-01</leafValues></_>
        <_>
          <internalNodes>
            0 -1 69 1.5224821865558624e-02</internalNodes>
          <leafValues>
            4.2039892077445984e-01 -9.1022008657455444e-01</leafValues></_>
        <_>
          <internalNodes>
            0 -1 21 -2.0463455468416214e-02</internalNodes>
          <leafValues>
            7.2577768564224243e-01 -3.6300075054168701e-01</leafValues></_>
        <_>
          <internalNodes>
            0 -1 104 2.3483214899897575e-03</internalNodes>
          <leafValues>
            -5.4727369546890259e-01 4.6730881929397583e-01</leafValues></_>
        <_>
          <internalNodes>
            0 -1 163 -2.0342621952295303e-02</internalNodes>
          <leafValues>
            5.5300718545913696e-01 -5.2409964799880981e-01</leafValues></_>
        <_>
          <internalNodes>
            0 -1 22 -1.6505337043781765e-05</internalNodes>
          <leafValues>
            5.9937793016433716e-01 -4.6587535738945007e-01</leafValues></_></weakClassifiers></_>
    <!-- stage 12 -->
    <_>
      <maxWeakCount>5</maxWeakCount>
      <stageThreshold>1.4468370936810970e-02</stageThreshold>
      <weakClassifiers>
        <_>
          <internalNodes>
            0 -1 31 3.9674118161201477e-02</internalNodes>
          <leafValues>
            7.0612245798110962e-01 -8.6666667461395264e-01</leafValues></_>
        <_>
          <internalNodes>
            0 -1 150 -8.8734794408082962e-03</internalNodes>
          <leafValues>
            -6.9687539339065552e-01 5.6144869327545166e-01</leafValues></_>
        <_>
          <internalNodes>
            0 -1 116 7.9889781773090363e-03</internalNodes>
          <leafValues>
            -4.2987385392189026e-01 7.0337301492691040e-01</leafValues></_>
        <_>
          <internalNodes>
            0 -1 54 2.3840549401938915e-03</internalNodes>
          <leafValues>
            -3.4169775247573853e-01 6.9968760013580322e-01</leafValues></_>
        <_>
          <internalNodes>
            0 -1 162 -2.0097335800528526e-03</internalNodes>
          <leafValues>
            9.4384914636611938e-01 -2.6459246873855591e-01</leafValues></_></weakClassifiers></_>
    <!-- stage 13 -->
    <_>
      <maxWeakCount>6</maxWeakCount>
      <stageThreshold>-1.4494921267032623e-01</stageThreshold>
      <weakClassifiers>
        <_>
          <internalNodes>
            0 -1 36 -7.6514184474945068e-03</internalNodes>
          <leafValues>
            -1. 7.0040488243103027e-01</leafValues></_>
        <_>
          <internalNodes>
            0 -1 46 -2.8866664506494999e-03</internalNodes>
          <leafValues>
            6.1271202564239502e-01 -4.5543569326400757e-01</leafValues></_>
        <_>
          <internalNodes>
            0 -1 182 -3.2401382923126221e-03</internalNodes>
          <leafValues>
            9.1397058963775635e-01 -2.9524192214012146e-01</leafValues></_>
        <_>
          <internalNodes>
            0 -1 47 -8.7438933551311493e-03</internalNodes>
          <leafValues>
            7.3004764318466187e-01 -2.9753369092941284e-01</leafValues></_>
        <_>
          <internalNodes>
            0 -1 115 -4.1935401968657970e-03</internalNodes>
          <leafValues>
            5.9964448213577271e-01 -4.7904270887374878e-01</leafValues></_>
        <_>
          <internalNodes>
            0 -1 183 4.0233833715319633e-05</internalNodes>
          <leafValues>
            -3.4568136930465698e-01 7.3513370752334595e-01</leafValues></_></weakClassifiers></_>
    <!-- stage 14 -->
    <_>
      <maxWeakCount>6</maxWeakCount>
      <stageThreshold>-3.8513556122779846e-01</stageThreshold>
      <weakClassifiers>
        <_>
          <internalNodes>
            0 -1 85 -3.6045622080564499e-02</internalNodes>
          <leafValues>
            -1. 7.0385396480560303e-01</leafValues></_>
        <_>
          <internalNodes>
            0 -1 16 3.1894315034151077e-03</internalNodes>
          <leafValues>
            -6.3538700342178345e-01 5.3620362281799316e-01</leafValues></_>
        <_>
          <internalNodes>
            0 -1 84 -3.6210268735885620e-03</internalNodes>
          <leafValues>
            6.9865810871124268e-01 -3.5055622458457947e-01</leafValues></_>
        <_>
          <internalNodes>
            0 -1 25 3.3227197825908661e-02</internalNodes>
          <leafValues>
            -4.6122637391090393e-01 6.5070986747741699e-01</leafValues></_>
        <_>
          <internalNodes>
            0 -1 142 -1.7577600374352187e-05</internalNodes>
          <leafValues>
            5.6272429227828979e-01 -4.5406529307365417e-01</leafValues></_>
        <_>
          <internalNodes>
            0 -1 97 1.3052888680249453e-03</internalNodes>
          <leafValues>
            -2.3696890473365784e-01 9.1612619161605835e-01</leafValues></_></weakClassifiers></_>
    <!-- stage 15 -->
    <_>
      <maxWeakCount>7</maxWeakCount>
      <stageThreshold>-5.1833307743072510e-01</stageThreshold>
      <weakClassifiers>
        <_>
          <internalNodes>
            0 -1 63 1.1771185323596001e-02</internalNodes>
          <leafValues>
            7.5892859697341919e-01 -2.7777779102325439e-01</leafValues></_>
        <_>
          <internalNodes>
            0 -1 19 2.7037214487791061e-02</internalNodes>
          <leafValues>
            -5.9314513206481934e-01 4.5924255251884460e-01</leafValues></_>
        <_>
          <internalNodes>
            0 -1 24 2.9685401823371649e-03</internalNodes>
          <leafValues>
            -2.4148565530776978e-01 8.8697916269302368e-01</leafValues></_>
        <_>
          <internalNodes>
            0 -1 12 2.0564412698149681e-03</internalNodes>
          <leafValues>
            -2.0855627954006195e-01 9.0682327747344971e-01</leafValues></_>
        <_>
          <internalNodes>
            0 -1 113 -1.6689507174305618e-04</internalNodes>
          <leafValues>
            3.3960965275764465e-01 -6.9251847267150879e-01</leafValues></_>
        <_>
          <internalNodes>
            0 -1 174 8.1975087523460388e-03</internalNodes>
          <leafValues>
            -2.9264491796493530e-01 8.0606204271316528e-01</leafValues></_>
        <_>
          <internalNodes>
            0 -1 153 1.4654567930847406e-03</internalNodes>
          <leafValues>
            -3.0129885673522949e-01 7.6518720388412476e-01</leafValues></_></weakClassifiers></_>
    <!-- stage 16 -->
    <_>
      <maxWeakCount>6</maxWeakCount>
      <stageThreshold>-7.3416091501712799e-02</stageThreshold>
      <weakClassifiers>
        <_>
          <internalNodes>
            0 -1 81 9.3698571436107159e-04</internalNodes>
          <leafValues>
            7.5107294321060181e-01 -5.5555558204650879e-01</leafValues></_>
        <_>
          <internalNodes>
            0 -1 181 2.2143154637888074e-05</internalNodes>
          <leafValues>
            -3.6207878589630127e-01 6.0498541593551636e-01</leafValues></_>
        <_>
          <internalNodes>
            0 -1 178 -4.4370358809828758e-03</internalNodes>
          <leafValues>
            7.1756035089492798e-01 -3.9373859763145447e-01</leafValues></_>
        <_>
          <internalNodes>
            0 -1 57 -1.8975175917148590e-03</internalNodes>
          <leafValues>
            6.4053004980087280e-01 -3.5881567001342773e-01</leafValues></_>
        <_>
          <internalNodes>
            0 -1 128 -3.1929987017065287e-04</internalNodes>
          <leafValues>
            3.8789278268814087e-01 -5.9865432977676392e-01</leafValues></_>
        <_>
          <internalNodes>
            0 -1 96 -5.0051175057888031e-02</internalNodes>
          <leafValues>
            -8.6966699361801147e-01 2.2901691496372223e-01</leafValues></_></weakClassifiers></_>
    <!-- stage 17 -->
    <_>
      <maxWeakCount>6</maxWeakCount>
      <stageThreshold>-5.2550566196441650e-01</stageThreshold>
      <weakClassifiers>
        <_>
          <internalNodes>
            0 -1 110 1.6021717339754105e-02</internalNodes>
          <leafValues>
            7.5892859697341919e-01 -2.7777779102325439e-01</leafValues></_>
        <_>
          <internalNodes>
            0 -1 135 3.3979744184762239e-03</internalNodes>
          <leafValues>
            -1.8549197912216187e-01 8.0986297130584717e-01</leafValues></_>
        <_>
          <internalNodes>
            0 -1 37 -9.1795288026332855e-03</internalNodes>
          <leafValues>
            -6.3798415660858154e-01 3.9103984832763672e-01</leafValues></_>
        <_>
          <internalNodes>
            0 -1 180 -4.0687534958124161e-02</internalNodes>
          <leafValues>
            7.9433882236480713e-01 -3.3723193407058716e-01</leafValues></_>
        <_>
          <internalNodes>
            0 -1 101 3.3259602787438780e-05</internalNodes>
          <leafValues>
            -4.5579719543457031e-01 5.8829122781753540e-01</leafValues></_>
        <_>
          <internalNodes>
            0 -1 159 -1.5558456652797759e-04</internalNodes>
          <leafValues>
            3.3207103610038757e-01 -7.0343220233917236e-01</leafValues></_></weakClassifiers></_>
    <!-- stage 18 -->
    <_>
      <maxWeakCount>7</maxWeakCount>
      <stageThreshold>-7.9930610954761505e-02</stageThreshold>
      <weakClassifiers>
        <_>
          <internalNodes>
            0 -1 71 2.1894304081797600e-03</internalNodes>
          <leafValues>
            7.3361521959304810e-01 -5.7446807622909546e-01</leafValues></_>
        <_>
          <internalNodes>
            0 -1 152 1.0224588215351105e-02</internalNodes>
          <leafValues>
            -3.2897689938545227e-01 6.2997430562973022e-01</leafValues></_>
        <_>
          <internalNodes>
            0 -1 88 2.2590621374547482e-03</internalNodes>
          <leafValues>
            -8.0340498685836792e-01 3.2229238748550415e-01</leafValues></_>
        <_>
          <internalNodes>
            0 -1 140 -3.5633819061331451e-04</internalNodes>
          <leafValues>
            6.7327046394348145e-01 -3.2029843330383301e-01</leafValues></_>
        <_>
          <internalNodes>
            0 -1 91 -6.2781870365142822e-03</internalNodes>
          <leafValues>
            5.8593463897705078e-01 -3.2484504580497742e-01</leafValues></_>
        <_>
          <internalNodes>
            0 -1 165 -9.7232626285403967e-04</internalNodes>
          <leafValues>
            8.7372595071792603e-01 -2.4195162951946259e-01</leafValues></_>
        <_>
          <internalNodes>
            0 -1 33 -3.9817981421947479e-02</internalNodes>
          <leafValues>
            -8.7871742248535156e-01 2.4986135959625244e-01</leafValues></_></weakClassifiers></_>
    <!-- stage 19 -->
    <_>
      <maxWeakCount>6</maxWeakCount>
      <stageThreshold>-6.7501485347747803e-02</stageThreshold>
      <weakClassifiers>
        <_>
          <internalNodes>
            0 -1 53 -9.6571655012667179e-04</internalNodes>
          <leafValues>
            7.0491802692413330e-01 -7.5000000000000000e-01</leafValues></_>
        <_>
          <internalNodes>
            0 -1 82 -5.0138048827648163e-03</internalNodes>
          <leafValues>
            -3.4777525067329407e-01 6.4638119935989380e-01</leafValues></_>
        <_>
          <internalNodes>
            0 -1 42 -1.7073037102818489e-02</internalNodes>
          <leafValues>
            5.3615593910217285e-01 -4.5856171846389771e-01</leafValues></_>
        <_>
          <internalNodes>
            0 -1 111 -7.8621751163154840e-04</internalNodes>
          <leafValues>
            2.5644597411155701e-01 -7.9508459568023682e-01</leafValues></_>
        <_>
          <internalNodes>
            0 -1 157 -8.4065701812505722e-03</internalNodes>
          <leafValues>
            -7.9199838638305664e-01 2.2412566840648651e-01</leafValues></_>
        <_>
          <internalNodes>
            0 -1 145 9.5682410756126046e-04</internalNodes>
          <leafValues>
            -4.0662735700607300e-01 6.0487639904022217e-01</leafValues></_></weakClassifiers></_>
    <!-- stage 20 -->
    <_>
      <maxWeakCount>8</maxWeakCount>
      <stageThreshold>-3.3012486994266510e-02</stageThreshold>
      <weakClassifiers>
        <_>
          <internalNodes>
            0 -1 1 7.2751224040985107e-02</internalNodes>
          <leafValues>
            7.0552146434783936e-01 -8.0645161867141724e-01</leafValues></_>
        <_>
          <internalNodes>
            0 -1 59 6.1036989092826843e-02</internalNodes>
          <leafValues>
            -1.9640447199344635e-01 9.6571308374404907e-01</leafValues></_>
        <_>
          <internalNodes>
            0 -1 148 -8.1594418734312057e-03</internalNodes>
          <leafValues>
            5.7156747579574585e-01 -3.6199817061424255e-01</leafValues></_>
        <_>
          <internalNodes>
            0 -1 136 -2.8947385726496577e-04</internalNodes>
          <leafValues>
            8.5841262340545654e-01 -2.1885524690151215e-01</leafValues></_>
        <_>
          <internalNodes>
            0 -1 153 -1.3250708580017090e-03</internalNodes>
          <leafValues>
            8.5074585676193237e-01 -1.9268058240413666e-01</leafValues></_>
        <_>
          <internalNodes>
            0 -1 80 3.8554919883608818e-03</internalNodes>
          <leafValues>
            3.2938435673713684e-01 -6.4840811491012573e-01</leafValues></_>
        <_>
          <internalNodes>
            0 -1 146 3.1009430531412363e-03</internalNodes>
          <leafValues>
            -2.6987501978874207e-01 7.3828601837158203e-01</leafValues></_>
        <_>
          <internalNodes>
            0 -1 23 -4.1866123676300049e-02</internalNodes>
          <leafValues>
            -9.3688106536865234e-01 2.1612198650836945e-01</leafValues></_></weakClassifiers></_>
    <!-- stage 21 -->
    <_>
      <maxWeakCount>8</maxWeakCount>
      <stageThreshold>-6.1669182777404785e-01</stageThreshold>
      <weakClassifiers>
        <_>
          <internalNodes>
            0 -1 48 1.8984586000442505e-02</internalNodes>
          <leafValues>
            7.2151899337768555e-01 -4.7826087474822998e-01</leafValues></_>
        <_>
          <internalNodes>
            0 -1 75 -4.0698191151022911e-03</internalNodes>
          <leafValues>
            5.4402494430541992e-01 -3.6192220449447632e-01</leafValues></_>
        <_>
          <internalNodes>
            0 -1 173 -3.2457504421472549e-03</internalNodes>
          <leafValues>
            6.3111293315887451e-01 -3.2245805859565735e-01</leafValues></_>
        <_>
          <internalNodes>
            0 -1 177 -8.2941483706235886e-03</internalNodes>
          <leafValues>
            6.8081879615783691e-01 -2.9903951287269592e-01</leafValues></_>
        <_>
          <internalNodes>
            0 -1 151 -4.0190801955759525e-03</internalNodes>
          <leafValues>
            -7.1933776140213013e-01 2.8484740853309631e-01</leafValues></_>
        <_>
          <internalNodes>
            0 -1 107 -5.6814649142324924e-03</internalNodes>
          <leafValues>
            9.2900645732879639e-01 -2.4221505224704742e-01</leafValues></_>
        <_>
          <internalNodes>
            0 -1 95 -1.9056156743317842e-03</internalNodes>
          <leafValues>
            8.4292018413543701e-01 -1.9451160728931427e-01</leafValues></_>
        <_>
          <internalNodes>
            0 -1 124 -8.9595100143924356e-04</internalNodes>
          <leafValues>
            5.4639714956283569e-01 -3.6994814872741699e-01</leafValues></_></weakClassifiers></_>
    <!-- stage 22 -->
    <_>
      <maxWeakCount>7</maxWeakCount>
      <stageThreshold>-2.6186421513557434e-01</stageThreshold>
      <weakClassifiers>
        <_>
          <internalNodes>
            0 -1 127 -1.3006756082177162e-02</internalNodes>
          <leafValues>
            -5.8139532804489136e-01 7.2327041625976563e-01</leafValues></_>
        <_>
          <internalNodes>
            0 -1 87 -6.7307497374713421e-03</internalNodes>
          <leafValues>
            6.0990852117538452e-01 -3.1184294819831848e-01</leafValues></_>
        <_>
          <internalNodes>
            0 -1 141 -6.7823892459273338e-03</internalNodes>
          <leafValues>
            -7.2455608844757080e-01 3.5583037137985229e-01</leafValues></_>
        <_>
          <internalNodes>
            0 -1 121 1.6077468899311498e-05</internalNodes>
          <leafValues>
            -2.7600094676017761e-01 8.2479882240295410e-01</leafValues></_>
        <_>
          <internalNodes>
            0 -1 175 5.7011847384274006e-03</internalNodes>
          <leafValues>
            -7.0467877388000488e-01 3.0478635430335999e-01</leafValues></_>
        <_>
          <internalNodes>
            0 -1 20 -4.4661940773949027e-04</internalNodes>
          <leafValues>
            6.0571652650833130e-01 -3.6110335588455200e-01</leafValues></_>
        <_>
          <internalNodes>
            0 -1 32 1.5723308024462312e-05</internalNodes>
          <leafValues>
            -3.5895824432373047e-01 6.6064703464508057e-01</leafValues></_></weakClassifiers></_>
    <!-- stage 23 -->
    <_>
      <maxWeakCount>7</maxWeakCount>
      <stageThreshold>-1.5045046806335449e-01</stageThreshold>
      <weakClassifiers>
        <_>
          <internalNodes>
            0 -1 70 -2.7920622378587723e-03</internalNodes>
          <leafValues>
            -5.8139532804489136e-01 7.2327041625976563e-01</leafValues></_>
        <_>
          <internalNodes>
            0 -1 55 1.2568822130560875e-02</internalNodes>
          <leafValues>
            -1.6291373968124390e-01 8.9813303947448730e-01</leafValues></_>
        <_>
          <internalNodes>
            0 -1 94 3.8178398972377181e-04</internalNodes>
          <leafValues>
            -1.9025716185569763e-01 8.0702793598175049e-01</leafValues></_>
        <_>
          <internalNodes>
            0 -1 122 3.0057495459914207e-03</internalNodes>
          <leafValues>
            -2.3620943725109100e-01 8.0325180292129517e-01</leafValues></_>
        <_>
          <internalNodes>
            0 -1 118 -2.9839850030839443e-03</internalNodes>
          <leafValues>
            6.2404561042785645e-01 -2.8406518697738647e-01</leafValues></_>
        <_>
          <internalNodes>
            0 -1 4 5.0689638592302799e-03</internalNodes>
          <leafValues>
            -5.5270308256149292e-01 3.9002513885498047e-01</leafValues></_>
        <_>
          <internalNodes>
            0 -1 143 1.6077468899311498e-05</internalNodes>
          <leafValues>
            -3.5568308830261230e-01 7.0690768957138062e-01</leafValues></_></weakClassifiers></_>
    <!-- stage 24 -->
    <_>
      <maxWeakCount>5</maxWeakCount>
      <stageThreshold>6.4555577933788300e-02</stageThreshold>
      <weakClassifiers>
        <_>
          <internalNodes>
            0 -1 52 -2.2259065881371498e-03</internalNodes>
          <leafValues>
            7.4522292613983154e-01 -6.3265305757522583e-01</leafValues></_>
        <_>
          <internalNodes>
            0 -1 155 2.5830799131654203e-04</internalNodes>
          <leafValues>
            6.5802812576293945e-01 -2.2085940837860107e-01</leafValues></_>
        <_>
          <internalNodes>
            0 -1 35 3.8276117993518710e-04</internalNodes>
          <leafValues>
            -6.6956496238708496e-01 3.5002222657203674e-01</leafValues></_>
        <_>
          <internalNodes>
            0 -1 44 -1.9304051529616117e-03</internalNodes>
          <leafValues>
            5.9444266557693481e-01 -4.0660867094993591e-01</leafValues></_>
        <_>
          <internalNodes>
            0 -1 139 1.5400974371004850e-04</internalNodes>
          <leafValues>
            -2.6252183318138123e-01 7.7238076925277710e-01</leafValues></_></weakClassifiers></_>
    <!-- stage 25 -->
    <_>
      <maxWeakCount>3</maxWeakCount>
      <stageThreshold>5.6070297956466675e-01</stageThreshold>
      <weakClassifiers>
        <_>
          <internalNodes>
            0 -1 106 -4.0806628763675690e-02</internalNodes>
          <leafValues>
            -9.2857140302658081e-01 7.0325201749801636e-01</leafValues></_>
        <_>
          <internalNodes>
            0 -1 62 -1.0034764185547829e-02</internalNodes>
          <leafValues>
            7.8737461566925049e-01 -5.2091509103775024e-01</leafValues></_>
        <_>
          <internalNodes>
            0 -1 102 2.6215787976980209e-02</internalNodes>
          <leafValues>
            -7.1546584367752075e-01 3.7836602330207825e-01</leafValues></_></weakClassifiers></_>
    <!-- stage 26 -->
    <_>
      <maxWeakCount>8</maxWeakCount>
      <stageThreshold>-1.9827242195606232e-01</stageThreshold>
      <weakClassifiers>
        <_>
          <internalNodes>
            0 -1 43 -8.3184223622083664e-03</internalNodes>
          <leafValues>
            8.3589744567871094e-01 -4.6153847128152847e-02</leafValues></_>
        <_>
          <internalNodes>
            0 -1 105 5.7862713001668453e-03</internalNodes>
          <leafValues>
            -2.9295989871025085e-01 5.7196521759033203e-01</leafValues></_>
        <_>
          <internalNodes>
            0 -1 61 1.4085264876484871e-02</internalNodes>
          <leafValues>
            -2.4255165457725525e-01 7.5231599807739258e-01</leafValues></_>
        <_>
          <internalNodes>
            0 -1 51 1.8004747107625008e-03</internalNodes>
          <leafValues>
            -5.8462613821029663e-01 3.9062640070915222e-01</leafValues></_>
        <_>
          <internalNodes>
            0 -1 156 -6.0093196225352585e-05</internalNodes>
          <leafValues>
            3.8728278875350952e-01 -5.4697030782699585e-01</leafValues></_>
        <_>
          <internalNodes>
            0 -1 41 -3.9762621745467186e-03</internalNodes>
          <leafValues>
            -6.1294406652450562e-01 3.7207010388374329e-01</leafValues></_>
        <_>
          <internalNodes>
            0 -1 64 5.2270159358158708e-04</internalNodes>
          <leafValues>
            -2.8848549723625183e-01 8.1588411331176758e-01</leafValues></_>
        <_>
          <internalNodes>
            0 -1 15 6.9045596756041050e-03</internalNodes>
          <leafValues>
            -3.0700880289077759e-01 6.1724078655242920e-01</leafValues></_></weakClassifiers></_>
    <!-- stage 27 -->
    <_>
      <maxWeakCount>7</maxWeakCount>
      <stageThreshold>-7.0916138589382172e-02</stageThreshold>
      <weakClassifiers>
        <_>
          <internalNodes>
            0 -1 39 1.3107089325785637e-03</internalNodes>
          <leafValues>
            6.9635629653930664e-01 -9.2307692766189575e-01</leafValues></_>
        <_>
          <internalNodes>
            0 -1 29 -1.3543615117669106e-02</internalNodes>
          <leafValues>
            6.1343348026275635e-01 -4.3118748068809509e-01</leafValues></_>
        <_>
          <internalNodes>
            0 -1 40 3.2010613358579576e-04</internalNodes>
          <leafValues>
            -3.1983938813209534e-01 7.2201532125473022e-01</leafValues></_>
        <_>
          <internalNodes>
            0 -1 8 2.3992624133825302e-02</internalNodes>
          <leafValues>
            -7.1637600660324097e-01 3.5809192061424255e-01</leafValues></_>
        <_>
          <internalNodes>
            0 -1 133 1.5771435573697090e-04</internalNodes>
          <leafValues>
            -3.9152222871780396e-01 6.9032615423202515e-01</leafValues></_>
        <_>
          <internalNodes>
            0 -1 114 8.2611964899115264e-05</internalNodes>
          <leafValues>
            -3.9154234528541565e-01 5.8138674497604370e-01</leafValues></_>
        <_>
          <internalNodes>
            0 -1 46 -3.6972113884985447e-03</internalNodes>
          <leafValues>
            4.0872710943222046e-01 -5.3842467069625854e-01</leafValues></_></weakClassifiers></_>
    <!-- stage 28 -->
    <_>
      <maxWeakCount>5</maxWeakCount>
      <stageThreshold>6.3455693423748016e-02</stageThreshold>
      <weakClassifiers>
        <_>
          <internalNodes>
            0 -1 50 1.5181356575340033e-03</internalNodes>
          <leafValues>
            7.6363635063171387e-01 -2.0000000298023224e-01</leafValues></_>
        <_>
          <internalNodes>
            0 -1 45 -6.8637290969491005e-03</internalNodes>
          <leafValues>
            5.7834380865097046e-01 -3.0215129256248474e-01</leafValues></_>
        <_>
          <internalNodes>
            0 -1 158 1.6426556612714194e-05</internalNodes>
          <leafValues>
            -2.4011003971099854e-01 8.2998883724212646e-01</leafValues></_>
        <_>
          <internalNodes>
            0 -1 26 2.4766087532043457e-02</internalNodes>
          <leafValues>
            -3.1524777412414551e-01 6.1839866638183594e-01</leafValues></_>
        <_>
          <internalNodes>
            0 -1 99 -9.7663998603820801e-03</internalNodes>
          <leafValues>
            -9.1277045011520386e-01 2.6572096347808838e-01</leafValues></_></weakClassifiers></_>
    <!-- stage 29 -->
    <_>
      <maxWeakCount>6</maxWeakCount>
      <stageThreshold>-1.9018372893333435e-01</stageThreshold>
      <weakClassifiers>
        <_>
          <internalNodes>
            0 -1 72 3.1215097755193710e-02</internalNodes>
          <leafValues>
            7.5052851438522339e-01 -7.4468082189559937e-01</leafValues></_>
        <_>
          <internalNodes>
            0 -1 184 1.2146967492299154e-04</internalNodes>
          <leafValues>
            -2.0567066967487335e-01 8.6298108100891113e-01</leafValues></_>
        <_>
          <internalNodes>
            0 -1 93 3.3637508749961853e-03</internalNodes>
          <leafValues>
            -1.9865560531616211e-01 9.7895908355712891e-01</leafValues></_>
        <_>
          <internalNodes>
            0 -1 9 9.2211857438087463e-02</internalNodes>
          <leafValues>
            -3.1267255544662476e-01 8.4324920177459717e-01</leafValues></_>
        <_>
          <internalNodes>
            0 -1 2 -1.2096817605197430e-02</internalNodes>
          <leafValues>
            -6.7264699935913086e-01 4.5344820618629456e-01</leafValues></_>
        <_>
          <internalNodes>
            0 -1 144 1.4561576535925269e-03</internalNodes>
          <leafValues>
            -3.5956692695617676e-01 9.1847836971282959e-01</leafValues></_></weakClassifiers></_>
    <!-- stage 30 -->
    <_>
      <maxWeakCount>8</maxWeakCount>
      <stageThreshold>-4.7217100858688354e-01</stageThreshold>
      <weakClassifiers>
        <_>
          <internalNodes>
            0 -1 100 -1.9976955652236938e-01</internalNodes>
          <leafValues>
            -6.1111110448837280e-01 7.0661157369613647e-01</leafValues></_>
        <_>
          <internalNodes>
            0 -1 86 -3.1925521325320005e-03</internalNodes>
          <leafValues>
            5.4765301942825317e-01 -3.9220669865608215e-01</leafValues></_>
        <_>
          <internalNodes>
            0 -1 78 3.3253161236643791e-03</internalNodes>
          <leafValues>
            -4.5039498805999756e-01 4.5084744691848755e-01</leafValues></_>
        <_>
          <internalNodes>
            0 -1 28 -1.3418564340099692e-03</internalNodes>
          <leafValues>
            7.3216253519058228e-01 -2.8792831301689148e-01</leafValues></_>
        <_>
          <internalNodes>
            0 -1 92 4.4425722444429994e-04</internalNodes>
          <leafValues>
            -3.9392668008804321e-01 5.8764898777008057e-01</leafValues></_>
        <_>
          <internalNodes>
            0 -1 74 -2.2074650041759014e-03</internalNodes>
          <leafValues>
            8.4079623222351074e-01 -2.3184153437614441e-01</leafValues></_>
        <_>
          <internalNodes>
            0 -1 134 3.4163944423198700e-02</internalNodes>
          <leafValues>
            -2.0927612483501434e-01 8.1904441118240356e-01</leafValues></_>
        <_>
          <internalNodes>
            0 -1 14 6.0309683904051781e-03</internalNodes>
          <leafValues>
            -1.9478394091129303e-01 8.6233037710189819e-01</leafValues></_></weakClassifiers></_>
    <!-- stage 31 -->
    <_>
      <maxWeakCount>7</maxWeakCount>
      <stageThreshold>-7.3674023151397705e-01</stageThreshold>
      <weakClassifiers>
        <_>
          <internalNodes>
            0 -1 3 1.2452332675457001e-01</internalNodes>
          <leafValues>
            7.2442591190338135e-01 -6.5853661298751831e-01</leafValues></_>
        <_>
          <internalNodes>
            0 -1 83 1.1180190369486809e-02</internalNodes>
          <leafValues>
            5.0900763273239136e-01 -5.9589964151382446e-01</leafValues></_>
        <_>
          <internalNodes>
            0 -1 79 -1.0443510487675667e-02</internalNodes>
          <leafValues>
            -4.4332411885261536e-01 6.4123702049255371e-01</leafValues></_>
        <_>
          <internalNodes>
            0 -1 161 -2.0062642171978951e-02</internalNodes>
          <leafValues>
            4.3679729104042053e-01 -6.1663967370986938e-01</leafValues></_>
        <_>
          <internalNodes>
            0 -1 119 2.0220206351950765e-04</internalNodes>
          <leafValues>
            -2.5446060299873352e-01 9.8678010702133179e-01</leafValues></_>
        <_>
          <internalNodes>
            0 -1 109 6.8288983311504126e-04</internalNodes>
          <leafValues>
            -2.6451551914215088e-01 9.1312205791473389e-01</leafValues></_>
        <_>
          <internalNodes>
            0 -1 10 9.7456766525283456e-05</internalNodes>
          <leafValues>
            5.6827324628829956e-01 -4.6396413445472717e-01</leafValues></_></weakClassifiers></_>
    <!-- stage 32 -->
    <_>
      <maxWeakCount>4</maxWeakCount>
      <stageThreshold>1.9164738059043884e-01</stageThreshold>
      <weakClassifiers>
        <_>
          <internalNodes>
            0 -1 98 9.5243509858846664e-03</internalNodes>
          <leafValues>
            8.2448035478591919e-01 -4.2528736591339111e-01</leafValues></_>
        <_>
          <internalNodes>
            0 -1 126 7.2426674887537956e-03</internalNodes>
          <leafValues>
            5.8022570610046387e-01 -5.8560919761657715e-01</leafValues></_>
        <_>
          <internalNodes>
            0 -1 164 -1.3936934992671013e-02</internalNodes>
          <leafValues>
            7.5184535980224609e-01 -4.6507158875465393e-01</leafValues></_>
        <_>
          <internalNodes>
            0 -1 112 1.9707342144101858e-03</internalNodes>
          <leafValues>
            -7.1153718233108521e-01 5.0178062915802002e-01</leafValues></_></weakClassifiers></_>
    <!-- stage 33 -->
    <_>
      <maxWeakCount>5</maxWeakCount>
      <stageThreshold>-5.6016534566879272e-02</stageThreshold>
      <weakClassifiers>
        <_>
          <internalNodes>
            0 -1 77 -1.7244648188352585e-02</internalNodes>
          <leafValues>
            -2.5547444820404053e-01 9.2689293622970581e-01</leafValues></_>
        <_>
          <internalNodes>
            0 -1 117 -3.0165051575750113e-03</internalNodes>
          <leafValues>
            -4.2016214132308960e-01 7.8398078680038452e-01</leafValues></_>
        <_>
          <internalNodes>
            0 -1 49 1.4621077105402946e-02</internalNodes>
          <leafValues>
            -4.8915711045265198e-01 8.0068075656890869e-01</leafValues></_>
        <_>
          <internalNodes>
            0 -1 67 -1.3874180614948273e-02</internalNodes>
          <leafValues>
            -5.8298754692077637e-01 6.9121152162551880e-01</leafValues></_>
        <_>
          <internalNodes>
            0 -1 5 -6.5925596281886101e-03</internalNodes>
          <leafValues>
            -8.0221611261367798e-01 5.8646643161773682e-01</leafValues></_></weakClassifiers></_>
    <!-- stage 34 -->
    <_>
      <maxWeakCount>1</maxWeakCount>
      <stageThreshold>1.</stageThreshold>
      <weakClassifiers>
        <_>
          <internalNodes>
            0 -1 130 -2.9960498213768005e-02</internalNodes>
          <leafValues>
            -9.8019802570343018e-01 1.</leafValues></_></weakClassifiers></_></stages>
  <features>
    <_>
      <rects>
        <_>
          0 0 6 6 -1.</_>
        <_>
          0 0 3 3 2.</_>
        <_>
          3 3 3 3 2.</_></rects>
      <tilted>0</tilted></_>
    <_>
      <rects>
        <_>
          0 0 3 20 -1.</_>
        <_>
          0 10 3 10 2.</_></rects>
      <tilted>0</tilted></_>
    <_>
      <rects>
        <_>
          0 0 21 9 -1.</_>
        <_>
          7 0 7 9 3.</_></rects>
      <tilted>0</tilted></_>
    <_>
      <rects>
        <_>
          0 0 18 6 -1.</_>
        <_>
          9 0 9 6 2.</_></rects>
      <tilted>0</tilted></_>
    <_>
      <rects>
        <_>
          0 0 18 9 -1.</_>
        <_>
          9 0 9 9 2.</_></rects>
      <tilted>0</tilted></_>
    <_>
      <rects>
        <_>
          0 0 12 6 -1.</_>
        <_>
          0 3 12 3 2.</_></rects>
      <tilted>0</tilted></_>
    <_>
      <rects>
        <_>
          0 1 6 13 -1.</_>
        <_>
          3 1 3 13 2.</_></rects>
      <tilted>0</tilted></_>
    <_>
      <rects>
        <_>
          0 1 6 18 -1.</_>
        <_>
          3 1 3 18 2.</_></rects>
      <tilted>0</tilted></_>
    <_>
      <rects>
        <_>
          0 1 15 18 -1.</_>
        <_>
          5 1 5 18 3.</_></rects>
      <tilted>0</tilted></_>
    <_>
      <rects>
        <_>
          0 1 22 6 -1.</_>
        <_>
          0 3 22 2 3.</_></rects>
      <tilted>0</tilted></_>
    <_>
      <rects>
        <_>
          0 2 2 1 -1.</_>
        <_>
          1 2 1 1 2.</_></rects>
      <tilted>0</tilted></_>
    <_>
      <rects>
        <_>
          0 2 6 6 -1.</_>
        <_>
          3 2 3 6 2.</_></rects>
      <tilted>0</tilted></_>
    <_>
      <rects>
        <_>
          0 4 6 2 -1.</_>
        <_>
          0 4 3 1 2.</_>
        <_>
          3 5 3 1 2.</_></rects>
      <tilted>0</tilted></_>
    <_>
      <rects>
        <_>
          0 4 9 12 -1.</_>
        <_>
          3 4 3 12 3.</_></rects>
      <tilted>0</tilted></_>
    <_>
      <rects>
        <_>
          0 9 1 12 -1.</_>
        <_>
          0 15 1 6 2.</_></rects>
      <tilted>0</tilted></_>
    <_>
      <rects>
        <_>
          0 10 6 11 -1.</_>
        <_>
          2 10 2 11 3.</_></rects>
      <tilted>0</tilted></_>
    <_>
      <rects>
        <_>
          0 11 12 9 -1.</_>
        <_>
          4 11 4 9 3.</_></rects>
      <tilted>0</tilted></_>
    <_>
      <rects>
        <_>
          0 11 20 4 -1.</_>
        <_>
          10 11 10 4 2.</_></rects>
      <tilted>0</tilted></_>
    <_>
      <rects>
        <_>
          0 12 9 4 -1.</_>
        <_>
          3 12 3 4 3.</_></rects>
      <tilted>0</tilted></_>
    <_>
      <rects>
        <_>
          0 13 24 6 -1.</_>
        <_>
          8 13 8 6 3.</_></rects>
      <tilted>0</tilted></_>
    <_>
      <rects>
        <_>
          0 16 4 2 -1.</_>
        <_>
          0 16 2 1 2.</_>
        <_>
          2 17 2 1 2.</_></rects>
      <tilted>0</tilted></_>
    <_>
      <rects>
        <_>
          0 18 14 6 -1.</_>
        <_>
          0 18 7 3 2.</_>
        <_>
          7 21 7 3 2.</_></rects>
      <tilted>0</tilted></_>
    <_>
      <rects>
        <_>
          0 19 2 2 -1.</_>
        <_>
          1 19 1 2 2.</_></rects>
      <tilted>0</tilted></_>
    <_>
      <rects>
        <_>
          1 1 18 8 -1.</_>
        <_>
          7 1 6 8 3.</_></rects>
      <tilted>0</tilted></_>
    <_>
      <rects>
        <_>
          1 4 6 1 -1.</_>
        <_>
          3 4 2 1 3.</_></rects>
      <tilted>0</tilted></_>
    <_>
      <rects>
        <_>
          2 0 6 8 -1.</_>
        <_>
          2 4 6 4 2.</_></rects>
      <tilted>0</tilted></_>
    <_>
      <rects>
        <_>
          2 0 14 4 -1.</_>
        <_>
          9 0 7 4 2.</_></rects>
      <tilted>0</tilted></_>
    <_>
      <rects>
        <_>
          2 0 20 12 -1.</_>
        <_>
          2 4 20 4 3.</_></rects>
      <tilted>0</tilted></_>
    <_>
      <rects>
        <_>
          2 5 6 2 -1.</_>
        <_>
          2 5 3 1 2.</_>
        <_>
          5 6 3 1 2.</_></rects>
      <tilted>0</tilted></_>
    <_>
      <rects>
        <_>
          2 5 14 9 -1.</_>
        <_>
          2 8 14 3 3.</_></rects>
      <tilted>0</tilted></_>
    <_>
      <rects>
        <_>
          2 8 20 16 -1.</_>
        <_>
          2 8 10 8 2.</_>
        <_>
          12 16 10 8 2.</_></rects>
      <tilted>0</tilted></_>
    <_>
      <rects>
        <_>
          2 12 18 10 -1.</_>
        <_>
          2 12 9 5 2.</_>
        <_>
          11 17 9 5 2.</_></rects>
      <tilted>0</tilted></_>
    <_>
      <rects>
        <_>
          2 17 2 2 -1.</_>
        <_>
          2 17 1 1 2.</_>
        <_>
          3 18 1 1 2.</_></rects>
      <tilted>0</tilted></_>
    <_>
      <rects>
        <_>
          3 1 21 12 -1.</_>
        <_>
          10 1 7 12 3.</_></rects>
      <tilted>0</tilted></_>
    <_>
      <rects>
        <_>
          3 6 16 18 -1.</_>
        <_>
          3 15 16 9 2.</_></rects>
      <tilted>0</tilted></_>
    <_>
      <rects>
        <_>
          3 11 21 5 -1.</_>
        <_>
          10 11 7 5 3.</_></rects>
      <tilted>0</tilted></_>
    <_>
      <rects>
        <_>
          3 12 6 6 -1.</_>
        <_>
          6 12 3 6 2.</_></rects>
      <tilted>0</tilted></_>
    <_>
      <rects>
        <_>
          3 13 15 4 -1.</_>
        <_>
          3 15 15 2 2.</_></rects>
      <tilted>0</tilted></_>
    <_>
      <rects>
        <_>
          3 13 15 8 -1.</_>
        <_>
          3 17 15 4 2.</_></rects>
      <tilted>0</tilted></_>
    <_>
      <rects>
        <_>
          3 18 17 2 -1.</_>
        <_>
          3 19 17 1 2.</_></rects>
      <tilted>0</tilted></_>
    <_>
      <rects>
        <_>
          3 19 8 2 -1.</_>
        <_>
          3 19 4 1 2.</_>
        <_>
          7 20 4 1 2.</_></rects>
      <tilted>0</tilted></_>
    <_>
      <rects>
        <_>
          3 19 10 2 -1.</_>
        <_>
          3 20 10 1 2.</_></rects>
      <tilted>0</tilted></_>
    <_>
      <rects>
        <_>
          4 3 6 12 -1.</_>
        <_>
          4 7 6 4 3.</_></rects>
      <tilted>0</tilted></_>
    <_>
      <rects>
        <_>
          4 3 6 10 -1.</_>
        <_>
          4 8 6 5 2.</_></rects>
      <tilted>0</tilted></_>
    <_>
      <rects>
        <_>
          4 4 6 3 -1.</_>
        <_>
          7 4 3 3 2.</_></rects>
      <tilted>0</tilted></_>
    <_>
      <rects>
        <_>
          4 4 15 4 -1.</_>
        <_>
          9 4 5 4 3.</_></rects>
      <tilted>0</tilted></_>
    <_>
      <rects>
        <_>
          4 5 15 4 -1.</_>
        <_>
          9 5 5 4 3.</_></rects>
      <tilted>0</tilted></_>
    <_>
      <rects>
        <_>
          4 5 11 6 -1.</_>
        <_>
          4 7 11 2 3.</_></rects>
      <tilted>0</tilted></_>
    <_>
      <rects>
        <_>
          4 6 8 10 -1.</_>
        <_>
          8 6 4 10 2.</_></rects>
      <tilted>0</tilted></_>
    <_>
      <rects>
        <_>
          4 8 18 12 -1.</_>
        <_>
          10 8 6 12 3.</_></rects>
      <tilted>0</tilted></_>
    <_>
      <rects>
        <_>
          4 9 6 2 -1.</_>
        <_>
          7 9 3 2 2.</_></rects>
      <tilted>0</tilted></_>
    <_>
      <rects>
        <_>
          4 9 8 12 -1.</_>
        <_>
          4 13 8 4 3.</_></rects>
      <tilted>0</tilted></_>
    <_>
      <rects>
        <_>
          4 11 12 8 -1.</_>
        <_>
          4 15 12 4 2.</_></rects>
      <tilted>0</tilted></_>
    <_>
      <rects>
        <_>
          4 14 9 8 -1.</_>
        <_>
          4 18 9 4 2.</_></rects>
      <tilted>0</tilted></_>
    <_>
      <rects>
        <_>
          4 18 4 6 -1.</_>
        <_>
          4 20 4 2 3.</_></rects>
      <tilted>0</tilted></_>
    <_>
      <rects>
        <_>
          5 0 1 9 -1.</_>
        <_>
          5 3 1 3 3.</_></rects>
      <tilted>0</tilted></_>
    <_>
      <rects>
        <_>
          5 0 2 9 -1.</_>
        <_>
          5 3 2 3 3.</_></rects>
      <tilted>0</tilted></_>
    <_>
      <rects>
        <_>
          5 0 4 8 -1.</_>
        <_>
          5 0 2 4 2.</_>
        <_>
          7 4 2 4 2.</_></rects>
      <tilted>0</tilted></_>
    <_>
      <rects>
        <_>
          5 0 3 9 -1.</_>
        <_>
          5 3 3 3 3.</_></rects>
      <tilted>0</tilted></_>
    <_>
      <rects>
        <_>
          5 0 13 6 -1.</_>
        <_>
          5 2 13 2 3.</_></rects>
      <tilted>0</tilted></_>
    <_>
      <rects>
        <_>
          5 1 12 11 -1.</_>
        <_>
          11 1 6 11 2.</_></rects>
      <tilted>0</tilted></_>
    <_>
      <rects>
        <_>
          5 1 12 3 -1.</_>
        <_>
          5 2 12 1 3.</_></rects>
      <tilted>0</tilted></_>
    <_>
      <rects>
        <_>
          5 4 7 12 -1.</_>
        <_>
          5 8 7 4 3.</_></rects>
      <tilted>0</tilted></_>
    <_>
      <rects>
        <_>
          5 5 10 11 -1.</_>
        <_>
          10 5 5 11 2.</_></rects>
      <tilted>0</tilted></_>
    <_>
      <rects>
        <_>
          5 7 4 2 -1.</_>
        <_>
          5 7 2 1 2.</_>
        <_>
          7 8 2 1 2.</_></rects>
      <tilted>0</tilted></_>
    <_>
      <rects>
        <_>
          5 9 10 15 -1.</_>
        <_>
          5 14 10 5 3.</_></rects>
      <tilted>0</tilted></_>
    <_>
      <rects>
        <_>
          5 10 2 2 -1.</_>
        <_>
          5 10 1 1 2.</_>
        <_>
          6 11 1 1 2.</_></rects>
      <tilted>0</tilted></_>
    <_>
      <rects>
        <_>
          5 10 1 14 -1.</_>
        <_>
          5 17 1 7 2.</_></rects>
      <tilted>0</tilted></_>
    <_>
      <rects>
        <_>
          5 12 4 5 -1.</_>
        <_>
          7 12 2 5 2.</_></rects>
      <tilted>0</tilted></_>
    <_>
      <rects>
        <_>
          5 12 16 8 -1.</_>
        <_>
          5 12 8 4 2.</_>
        <_>
          13 16 8 4 2.</_></rects>
      <tilted>0</tilted></_>
    <_>
      <rects>
        <_>
          5 16 11 2 -1.</_>
        <_>
          5 17 11 1 2.</_></rects>
      <tilted>0</tilted></_>
    <_>
      <rects>
        <_>
          5 17 7 3 -1.</_>
        <_>
          5 18 7 1 3.</_></rects>
      <tilted>0</tilted></_>
    <_>
      <rects>
        <_>
          6 0 16 2 -1.</_>
        <_>
          14 0 8 2 2.</_></rects>
      <tilted>0</tilted></_>
    <_>
      <rects>
        <_>
          6 1 18 5 -1.</_>
        <_>
          15 1 9 5 2.</_></rects>
      <tilted>0</tilted></_>
    <_>
      <rects>
        <_>
          6 4 3 3 -1.</_>
        <_>
          6 5 3 1 3.</_></rects>
      <tilted>0</tilted></_>
    <_>
      <rects>
        <_>
          6 4 12 6 -1.</_>
        <_>
          10 4 4 6 3.</_></rects>
      <tilted>0</tilted></_>
    <_>
      <rects>
        <_>
          6 5 12 4 -1.</_>
        <_>
          10 5 4 4 3.</_></rects>
      <tilted>0</tilted></_>
    <_>
      <rects>
        <_>
          6 6 1 18 -1.</_>
        <_>
          6 15 1 9 2.</_></rects>
      <tilted>0</tilted></_>
    <_>
      <rects>
        <_>
          6 9 12 11 -1.</_>
        <_>
          10 9 4 11 3.</_></rects>
      <tilted>0</tilted></_>
    <_>
      <rects>
        <_>
          6 12 9 8 -1.</_>
        <_>
          6 16 9 4 2.</_></rects>
      <tilted>0</tilted></_>
    <_>
      <rects>
        <_>
          6 12 12 6 -1.</_>
        <_>
          6 14 12 2 3.</_></rects>
      <tilted>0</tilted></_>
    <_>
      <rects>
        <_>
          6 12 13 4 -1.</_>
        <_>
          6 14 13 2 2.</_></rects>
      <tilted>0</tilted></_>
    <_>
      <rects>
        <_>
          6 13 3 8 -1.</_>
        <_>
          6 17 3 4 2.</_></rects>
      <tilted>0</tilted></_>
    <_>
      <rects>
        <_>
          7 1 14 20 -1.</_>
        <_>
          7 1 7 10 2.</_>
        <_>
          14 11 7 10 2.</_></rects>
      <tilted>0</tilted></_>
    <_>
      <rects>
        <_>
          7 3 8 2 -1.</_>
        <_>
          7 4 8 1 2.</_></rects>
      <tilted>0</tilted></_>
    <_>
      <rects>
        <_>
          7 4 8 15 -1.</_>
        <_>
          11 4 4 15 2.</_></rects>
      <tilted>0</tilted></_>
    <_>
      <rects>
        <_>
          7 15 8 7 -1.</_>
        <_>
          11 15 4 7 2.</_></rects>
      <tilted>0</tilted></_>
    <_>
      <rects>
        <_>
          7 15 8 8 -1.</_>
        <_>
          11 15 4 8 2.</_></rects>
      <tilted>0</tilted></_>
    <_>
      <rects>
        <_>
          7 15 9 9 -1.</_>
        <_>
          7 18 9 3 3.</_></rects>
      <tilted>0</tilted></_>
    <_>
      <rects>
        <_>
          7 15 11 4 -1.</_>
        <_>
          7 17 11 2 2.</_></rects>
      <tilted>0</tilted></_>
    <_>
      <rects>
        <_>
          7 18 14 6 -1.</_>
        <_>
          7 21 14 3 2.</_></rects>
      <tilted>0</tilted></_>
    <_>
      <rects>
        <_>
          7 21 15 3 -1.</_>
        <_>
          12 21 5 3 3.</_></rects>
      <tilted>0</tilted></_>
    <_>
      <rects>
        <_>
          8 0 2 4 -1.</_>
        <_>
          9 0 1 4 2.</_></rects>
      <tilted>0</tilted></_>
    <_>
      <rects>
        <_>
          8 0 7 3 -1.</_>
        <_>
          8 1 7 1 3.</_></rects>
      <tilted>0</tilted></_>
    <_>
      <rects>
        <_>
          8 1 2 4 -1.</_>
        <_>
          8 1 1 2 2.</_>
        <_>
          9 3 1 2 2.</_></rects>
      <tilted>0</tilted></_>
    <_>
      <rects>
        <_>
          8 1 2 6 -1.</_>
        <_>
          8 3 2 2 3.</_></rects>
      <tilted>0</tilted></_>
    <_>
      <rects>
        <_>
          8 1 12 17 -1.</_>
        <_>
          14 1 6 17 2.</_></rects>
      <tilted>0</tilted></_>
    <_>
      <rects>
        <_>
          8 3 1 3 -1.</_>
        <_>
          8 4 1 1 3.</_></rects>
      <tilted>0</tilted></_>
    <_>
      <rects>
        <_>
          8 4 12 8 -1.</_>
        <_>
          12 4 4 8 3.</_></rects>
      <tilted>0</tilted></_>
    <_>
      <rects>
        <_>
          8 6 6 11 -1.</_>
        <_>
          11 6 3 11 2.</_></rects>
      <tilted>0</tilted></_>
    <_>
      <rects>
        <_>
          8 10 16 14 -1.</_>
        <_>
          16 10 8 14 2.</_></rects>
      <tilted>0</tilted></_>
    <_>
      <rects>
        <_>
          8 11 2 4 -1.</_>
        <_>
          9 11 1 4 2.</_></rects>
      <tilted>0</tilted></_>
    <_>
      <rects>
        <_>
          8 12 10 12 -1.</_>
        <_>
          8 16 10 4 3.</_></rects>
      <tilted>0</tilted></_>
    <_>
      <rects>
        <_>
          8 15 7 9 -1.</_>
        <_>
          8 18 7 3 3.</_></rects>
      <tilted>0</tilted></_>
    <_>
      <rects>
        <_>
          8 18 7 6 -1.</_>
        <_>
          8 20 7 2 3.</_></rects>
      <tilted>0</tilted></_>
    <_>
      <rects>
        <_>
          8 20 16 4 -1.</_>
        <_>
          8 20 8 2 2.</_>
        <_>
          16 22 8 2 2.</_></rects>
      <tilted>0</tilted></_>
    <_>
      <rects>
        <_>
          9 0 3 24 -1.</_>
        <_>
          9 8 3 8 3.</_></rects>
      <tilted>0</tilted></_>
    <_>
      <rects>
        <_>
          9 1 12 2 -1.</_>
        <_>
          9 1 6 1 2.</_>
        <_>
          15 2 6 1 2.</_></rects>
      <tilted>0</tilted></_>
    <_>
      <rects>
        <_>
          9 3 12 20 -1.</_>
        <_>
          9 3 6 10 2.</_>
        <_>
          15 13 6 10 2.</_></rects>
      <tilted>0</tilted></_>
    <_>
      <rects>
        <_>
          9 4 1 3 -1.</_>
        <_>
          9 5 1 1 3.</_></rects>
      <tilted>0</tilted></_>
    <_>
      <rects>
        <_>
          9 5 12 10 -1.</_>
        <_>
          13 5 4 10 3.</_></rects>
      <tilted>0</tilted></_>
    <_>
      <rects>
        <_>
          9 11 12 6 -1.</_>
        <_>
          9 14 12 3 2.</_></rects>
      <tilted>0</tilted></_>
    <_>
      <rects>
        <_>
          9 12 2 12 -1.</_>
        <_>
          9 16 2 4 3.</_></rects>
      <tilted>0</tilted></_>
    <_>
      <rects>
        <_>
          9 12 9 4 -1.</_>
        <_>
          9 14 9 2 2.</_></rects>
      <tilted>0</tilted></_>
    <_>
      <rects>
        <_>
          9 15 4 1 -1.</_>
        <_>
          11 15 2 1 2.</_></rects>
      <tilted>0</tilted></_>
    <_>
      <rects>
        <_>
          9 21 15 2 -1.</_>
        <_>
          14 21 5 2 3.</_></rects>
      <tilted>0</tilted></_>
    <_>
      <rects>
        <_>
          10 0 2 6 -1.</_>
        <_>
          10 2 2 2 3.</_></rects>
      <tilted>0</tilted></_>
    <_>
      <rects>
        <_>
          10 0 4 9 -1.</_>
        <_>
          12 0 2 9 2.</_></rects>
      <tilted>0</tilted></_>
    <_>
      <rects>
        <_>
          10 1 12 2 -1.</_>
        <_>
          10 1 6 1 2.</_>
        <_>
          16 2 6 1 2.</_></rects>
      <tilted>0</tilted></_>
    <_>
      <rects>
        <_>
          10 7 1 3 -1.</_>
        <_>
          10 8 1 1 3.</_></rects>
      <tilted>0</tilted></_>
    <_>
      <rects>
        <_>
          10 11 7 8 -1.</_>
        <_>
          10 15 7 4 2.</_></rects>
      <tilted>0</tilted></_>
    <_>
      <rects>
        <_>
          10 17 2 2 -1.</_>
        <_>
          10 18 2 1 2.</_></rects>
      <tilted>0</tilted></_>
    <_>
      <rects>
        <_>
          11 0 3 3 -1.</_>
        <_>
          11 1 3 1 3.</_></rects>
      <tilted>0</tilted></_>
    <_>
      <rects>
        <_>
          11 0 4 6 -1.</_>
        <_>
          11 2 4 2 3.</_></rects>
      <tilted>0</tilted></_>
    <_>
      <rects>
        <_>
          11 7 4 10 -1.</_>
        <_>
          11 7 2 5 2.</_>
        <_>
          13 12 2 5 2.</_></rects>
      <tilted>0</tilted></_>
    <_>
      <rects>
        <_>
          11 8 9 9 -1.</_>
        <_>
          14 8 3 9 3.</_></rects>
      <tilted>0</tilted></_>
    <_>
      <rects>
        <_>
          11 9 9 9 -1.</_>
        <_>
          14 9 3 9 3.</_></rects>
      <tilted>0</tilted></_>
    <_>
      <rects>
        <_>
          11 11 8 6 -1.</_>
        <_>
          15 11 4 6 2.</_></rects>
      <tilted>0</tilted></_>
    <_>
      <rects>
        <_>
          11 12 4 10 -1.</_>
        <_>
          13 12 2 10 2.</_></rects>
      <tilted>0</tilted></_>
    <_>
      <rects>
        <_>
          12 0 2 6 -1.</_>
        <_>
          12 2 2 2 3.</_></rects>
      <tilted>0</tilted></_>
    <_>
      <rects>
        <_>
          12 5 3 6 -1.</_>
        <_>
          12 8 3 3 2.</_></rects>
      <tilted>0</tilted></_>
    <_>
      <rects>
        <_>
          12 5 8 3 -1.</_>
        <_>
          12 6 8 1 3.</_></rects>
      <tilted>0</tilted></_>
    <_>
      <rects>
        <_>
          12 9 1 2 -1.</_>
        <_>
          12 10 1 1 2.</_></rects>
      <tilted>0</tilted></_>
    <_>
      <rects>
        <_>
          12 14 4 2 -1.</_>
        <_>
          12 14 2 1 2.</_>
        <_>
          14 15 2 1 2.</_></rects>
      <tilted>0</tilted></_>
    <_>
      <rects>
        <_>
          13 0 5 6 -1.</_>
        <_>
          13 2 5 2 3.</_></rects>
      <tilted>0</tilted></_>
    <_>
      <rects>
        <_>
          13 1 5 3 -1.</_>
        <_>
          13 2 5 1 3.</_></rects>
      <tilted>0</tilted></_>
    <_>
      <rects>
        <_>
          13 2 2 2 -1.</_>
        <_>
          13 2 1 1 2.</_>
        <_>
          14 3 1 1 2.</_></rects>
      <tilted>0</tilted></_>
    <_>
      <rects>
        <_>
          13 4 3 3 -1.</_>
        <_>
          13 5 3 1 3.</_></rects>
      <tilted>0</tilted></_>
    <_>
      <rects>
        <_>
          13 5 10 2 -1.</_>
        <_>
          13 5 5 1 2.</_>
        <_>
          18 6 5 1 2.</_></rects>
      <tilted>0</tilted></_>
    <_>
      <rects>
        <_>
          13 8 1 3 -1.</_>
        <_>
          13 9 1 1 3.</_></rects>
      <tilted>0</tilted></_>
    <_>
      <rects>
        <_>
          13 9 2 6 -1.</_>
        <_>
          13 9 1 3 2.</_>
        <_>
          14 12 1 3 2.</_></rects>
      <tilted>0</tilted></_>
    <_>
      <rects>
        <_>
          13 9 7 6 -1.</_>
        <_>
          13 12 7 3 2.</_></rects>
      <tilted>0</tilted></_>
    <_>
      <rects>
        <_>
          13 12 1 6 -1.</_>
        <_>
          13 14 1 2 3.</_></rects>
      <tilted>0</tilted></_>
    <_>
      <rects>
        <_>
          13 16 1 2 -1.</_>
        <_>
          13 17 1 1 2.</_></rects>
      <tilted>0</tilted></_>
    <_>
      <rects>
        <_>
          13 19 4 4 -1.</_>
        <_>
          13 19 2 2 2.</_>
        <_>
          15 21 2 2 2.</_></rects>
      <tilted>0</tilted></_>
    <_>
      <rects>
        <_>
          14 0 4 8 -1.</_>
        <_>
          16 0 2 8 2.</_></rects>
      <tilted>0</tilted></_>
    <_>
      <rects>
        <_>
          14 3 3 3 -1.</_>
        <_>
          14 4 3 1 3.</_></rects>
      <tilted>0</tilted></_>
    <_>
      <rects>
        <_>
          14 4 6 4 -1.</_>
        <_>
          17 4 3 4 2.</_></rects>
      <tilted>0</tilted></_>
    <_>
      <rects>
        <_>
          14 5 7 4 -1.</_>
        <_>
          14 7 7 2 2.</_></rects>
      <tilted>0</tilted></_>
    <_>
      <rects>
        <_>
          14 9 4 15 -1.</_>
        <_>
          14 14 4 5 3.</_></rects>
      <tilted>0</tilted></_>
    <_>
      <rects>
        <_>
          14 9 5 8 -1.</_>
        <_>
          14 13 5 4 2.</_></rects>
      <tilted>0</tilted></_>
    <_>
      <rects>
        <_>
          14 12 6 4 -1.</_>
        <_>
          14 14 6 2 2.</_></rects>
      <tilted>0</tilted></_>
    <_>
      <rects>
        <_>
          15 4 9 2 -1.</_>
        <_>
          18 4 3 2 3.</_></rects>
      <tilted>0</tilted></_>
    <_>
      <rects>
        <_>
          15 5 2 3 -1.</_>
        <_>
          15 6 2 1 3.</_></rects>
      <tilted>0</tilted></_>
    <_>
      <rects>
        <_>
          15 5 5 6 -1.</_>
        <_>
          15 7 5 2 3.</_></rects>
      <tilted>0</tilted></_>
    <_>
      <rects>
        <_>
          15 8 6 16 -1.</_>
        <_>
          17 8 2 16 3.</_></rects>
      <tilted>0</tilted></_>
    <_>
      <rects>
        <_>
          15 9 2 10 -1.</_>
        <_>
          16 9 1 10 2.</_></rects>
      <tilted>0</tilted></_>
    <_>
      <rects>
        <_>
          15 10 5 6 -1.</_>
        <_>
          15 13 5 3 2.</_></rects>
      <tilted>0</tilted></_>
    <_>
      <rects>
        <_>
          15 15 1 2 -1.</_>
        <_>
          15 16 1 1 2.</_></rects>
      <tilted>0</tilted></_>
    <_>
      <rects>
        <_>
          15 15 6 3 -1.</_>
        <_>
          18 15 3 3 2.</_></rects>
      <tilted>0</tilted></_>
    <_>
      <rects>
        <_>
          16 0 2 9 -1.</_>
        <_>
          16 3 2 3 3.</_></rects>
      <tilted>0</tilted></_>
    <_>
      <rects>
        <_>
          16 1 8 7 -1.</_>
        <_>
          20 1 4 7 2.</_></rects>
      <tilted>0</tilted></_>
    <_>
      <rects>
        <_>
          16 3 6 2 -1.</_>
        <_>
          16 3 3 1 2.</_>
        <_>
          19 4 3 1 2.</_></rects>
      <tilted>0</tilted></_>
    <_>
      <rects>
        <_>
          16 3 5 12 -1.</_>
        <_>
          16 9 5 6 2.</_></rects>
      <tilted>0</tilted></_>
    <_>
      <rects>
        <_>
          16 5 8 3 -1.</_>
        <_>
          20 5 4 3 2.</_></rects>
      <tilted>0</tilted></_>
    <_>
      <rects>
        <_>
          16 6 4 2 -1.</_>
        <_>
          16 6 2 1 2.</_>
        <_>
          18 7 2 1 2.</_></rects>
      <tilted>0</tilted></_>
    <_>
      <rects>
        <_>
          16 9 1 15 -1.</_>
        <_>
          16 14 1 5 3.</_></rects>
      <tilted>0</tilted></_>
    <_>
      <rects>
        <_>
          17 3 6 9 -1.</_>
        <_>
          19 3 2 9 3.</_></rects>
      <tilted>0</tilted></_>
    <_>
      <rects>
        <_>
          17 9 2 10 -1.</_>
        <_>
          18 9 1 10 2.</_></rects>
      <tilted>0</tilted></_>
    <_>
      <rects>
        <_>
          18 0 6 8 -1.</_>
        <_>
          21 0 3 8 2.</_></rects>
      <tilted>0</tilted></_>
    <_>
      <rects>
        <_>
          18 1 1 9 -1.</_>
        <_>
          18 4 1 3 3.</_></rects>
      <tilted>0</tilted></_>
    <_>
      <rects>
        <_>
          18 3 6 11 -1.</_>
        <_>
          20 3 2 11 3.</_></rects>
      <tilted>0</tilted></_>
    <_>
      <rects>
        <_>
          18 4 6 3 -1.</_>
        <_>
          21 4 3 3 2.</_></rects>
      <tilted>0</tilted></_>
    <_>
      <rects>
        <_>
          18 5 3 6 -1.</_>
        <_>
          18 7 3 2 3.</_></rects>
      <tilted>0</tilted></_>
    <_>
      <rects>
        <_>
          18 17 6 6 -1.</_>
        <_>
          18 17 3 3 2.</_>
        <_>
          21 20 3 3 2.</_></rects>
      <tilted>0</tilted></_>
    <_>
      <rects>
        <_>
          19 0 2 12 -1.</_>
        <_>
          19 4 2 4 3.</_></rects>
      <tilted>0</tilted></_>
    <_>
      <rects>
        <_>
          20 0 2 10 -1.</_>
        <_>
          20 5 2 5 2.</_></rects>
      <tilted>0</tilted></_>
    <_>
      <rects>
        <_>
          20 0 4 12 -1.</_>
        <_>
          20 0 2 6 2.</_>
        <_>
          22 6 2 6 2.</_></rects>
      <tilted>0</tilted></_>
    <_>
      <rects>
        <_>
          20 1 4 6 -1.</_>
        <_>
          20 1 2 3 2.</_>
        <_>
          22 4 2 3 2.</_></rects>
      <tilted>0</tilted></_>
    <_>
      <rects>
        <_>
          20 5 4 2 -1.</_>
        <_>
          22 5 2 2 2.</_></rects>
      <tilted>0</tilted></_>
    <_>
      <rects>
        <_>
          20 5 4 10 -1.</_>
        <_>
          22 5 2 10 2.</_></rects>
      <tilted>0</tilted></_>
    <_>
      <rects>
        <_>
          20 22 4 1 -1.</_>
        <_>
          22 22 2 1 2.</_></rects>
      <tilted>0</tilted></_>
    <_>
      <rects>
        <_>
          22 0 2 8 -1.</_>
        <_>
          22 0 1 4 2.</_>
        <_>
          23 4 1 4 2.</_></rects>
      <tilted>0</tilted></_>
    <_>
      <rects>
        <_>
          22 17 2 1 -1.</_>
        <_>
          23 17 1 1 2.</_></rects>
      <tilted>0</tilted></_>
    <_>
      <rects>
        <_>
          23 13 1 6 -1.</_>
        <_>
          23 16 1 3 2.</_></rects>
      <tilted>0</tilted></_></features></cascade>
</opencv_storage>
